{
	"layers":[
		{
			"sx":5,
			"sy":5,
			"stride":1,
			"in_depth":1,
			"out_depth":8,
			"out_sx":24,
			"out_sy":24,
			"layer_type":"conv",
			"l1_decay_mul":0,
			"l2_decay_mul":1,
			"pad":2,
			"filters":[
				{
				"sx":5,
				"sy":5,
				"depth":1,
				"w":{
					"0":0.1727182558445791,
					"1":0.04269291820289713,
					"2":0.03399730657916232,
					"3":-0.1497769209020229,
					"4":-0.3418930351947603,
					"5":0.05917236328123612,
					"6":-0.3652756927724214,
					"7":0.02083850045495645,
					"8":0.07890771950639244,
					"9":0.4390474894523847,
					"10":0.19074446655888,
					"11":-0.29130964213348154,
					"12":-0.31923699096840363,
					"13":0.3421769991423158,
					"14":0.5182153680600368,
					"15":0.22596525613168017,
					"16":-0.07825461953368944,
					"17":-0.08637578991199422,
					"18":-0.3332974092598901,
					"19":-0.46177270237556817,
					"20":-0.11676973087077958,
					"21":0.22998421334809455,
					"22":0.17448390579264003,
					"23":-0.02506826111844834,
					"24":-0.1721712063792153
					}
				},
				{
					"sx":5,
					"sy":5,
					"depth":1,
					"w":{
						"0":0.15614056145195493,
						"1":-0.09532559197099448,
						"2":0.15169746888077415,
						"3":0.5195818806247016,
						"4":-0.20058922126514925,
						"5":0.052533136594053446,
						"6":0.025707388042733502,
						"7":0.0010934955817569862,
						"8":0.31982240379275784,
						"9":-0.42620398081965816,
						"10":0.186464562571702,
						"11":0.11055076511482786,
						"12":-0.09354172250292686,
						"13":0.196173389389632,
						"14":-0.11532492589558556,
						"15":-0.354463054832353,
						"16":0.19179706576865696,
						"17":0.225998833959285,
						"18":0.40385804940708875,
						"19":-0.33457953672017365,
						"20":-0.35854267550091085,
						"21":0.22457847055968921,
						"22":0.18679288864975116,
						"23":0.27259564021448135,
						"24":0.06193658667872429
					}
				},

				{"sx":5,
				"sy":5,
				"depth":1,
				"w":
				{"0":-0.12723260147392668,
				"1":-0.329277856421346,
				"2":-0.5910446681843727,
				"3":-0.3074015094454769,
				"4":-0.33228982986320266,
				"5":-0.22058884810694587,
				"6":-0.410173781113079,
				"7":-0.5351104010886053,
				"8":-0.5265890098071806,
				"9":-0.22714948633536347,
				"10":0.42278441019100904,
				"11":-0.19387787021183164,
				"12":-0.32683521429674034,
				"13":-0.6855987927618019,
				"14":-0.6079636678415283,
				"15":0.7268165016691337,
				"16":0.29000731241000355,
				"17":0.2033991804081998,
				"18":-0.12377951484959905,
				"19":-0.09022987013676041,
				"20":0.2902609852038276,
				"21":0.9948255122254562,
				"22":0.4681504618141333,
				"23":-0.009094448439380835,
				"24":0.06331966451701211
				}
				},

				{"sx":5,
				"sy":5,
				"depth":1,
				"w":
				{"0":0.6213698974893138,
				"1":0.7450231937224161,
				"2":-0.3932943616264236,
				"3":-0.7049380397841073,
				"4":-0.4903099684052941,
				"5":0.298254700842976,
				"6":0.5078932466233133,
				"7":-0.16303758488015818,
				"8":-0.3325195740550913,
				"9":-0.8484632804976985,
				"10":0.6212326404228546,
				"11":0.4520253586255391,
				"12":-0.4277433727091129,
				"13":-0.5011678411660027,
				"14":-0.5319496439352024,
				"15":0.37932214307573314,
				"16":-0.0960004924229938,
				"17":-0.4516999412794206,
				"18":-0.6832833812309234,
				"19":-0.53099464726524,
				"20":-0.05714461992953948,
				"21":-0.4190231353853138,
				"22":-0.6074450986026287,
				"23":-0.8003310883906887,
				"24":-0.4727329209157079
				}
				},

				{"sx":5,
				"sy":5,
				"depth":1,
				"w":
				{"0":0.24411544399650928,
				"1":0.40311085160777915,
				"2":0.18540847894335302,
				"3":-0.2537345080828712,
				"4":-0.5433127881311509,
				"5":0.6362408864248819,
				"6":-0.033167290303789114,
				"7":-0.016727091060172755,
				"8":-0.8544882612932638,
				"9":-0.473636156156521,
				"10":-0.10806568581603455,
				"11":-0.5794786412584803,
				"12":-0.801941872829444,
				"13":-0.3818787695249088,
				"14":-0.0705785645014383,
				"15":-0.16311936426157378,
				"16":-0.38322571102801994,
				"17":-0.5037213743829745,
				"18":0.07902360456861762,
				"19":0.5042341451220764,
				"20":-0.2010265174450825,
				"21":-0.1631992722825501,
				"22":0.08116809894731375,
				"23":0.48044481286633295,
				"24":0.5314794578403624
				}
				},

				{"sx":5,
				"sy":5,
				"depth":1,
				"w":
				{"0":-0.19040308515821844,
				"1":-0.31633840135150704,
				"2":-0.06710709109399209,
				"3":0.24258326765634972,
				"4":-0.008024330424189319,
				"5":0.04156419717515491,
				"6":0.0077500319383309885,
				"7":0.16927461790976941,
				"8":-0.0036375985174155016,
				"9":0.0777697971376396,
				"10":0.2598218045202766,
				"11":0.4234469313855677,
				"12":0.24341029377478846,
				"13":-0.0008749537982245125,
				"14":0.13686298594974677,
				"15":-0.28413303817582597,
				"16":-0.5391979005558238,
				"17":-0.4706178437620549,
				"18":0.047750580955596235,
				"19":0.2107639608032371,
				"20":0.07287068448733512,
				"21":0.039690391431929005,
				"22":-0.19722434168899108,
				"23":-0.2512264148044133,
				"24":-0.2640403384790534
				}
				},

				{"sx":5,
				"sy":5,
				"depth":1,
				"w":
				{"0":0.25267991460546074,
				"1":0.41203495770471815,
				"2":0.5741174589793379,
				"3":0.562962904081248,
				"4":0.19640703978395446,
				"5":0.2562746433381796,
				"6":0.2768279282510927,
				"7":0.41885250978479466,
				"8":0.8312868816482335,
				"9":0.6125439603629882,
				"10":-0.3020669179537578,
				"11":-0.1346105724303818,
				"12":-0.30262725503737303,
				"13":-0.07508615991294261,
				"14":0.13578455888412794,
				"15":-0.984257982745146,
				"16":-0.3543361183374206,
				"17":-0.4489383641510442,
				"18":-0.7743198174960728,
				"19":-0.4091659349954972,
				"20":-0.569799361232173,
				"21":-0.4698014192453459,
				"22":-0.7497948234076146,
				"23":-0.6608022611622705,
				"24":-0.1844829703598171
				}
				},

				{"sx":5,
				"sy":5,
				"depth":1,
				"w":
				{"0":-0.3078605838545473,
				"1":-0.1869436532991134,
				"2":0.006985840486157929,
				"3":0.2669602360079868,
				"4":-0.14874411582619973,
				"5":-0.3392942891886303,
				"6":-0.22576067868858624,
				"7":0.19836537012431021,
				"8":0.36202240007474806,
				"9":0.176411268260319,
				"10":-0.3992616676642853,
				"11":0.1960771165353639,
				"12":0.32830280661805106,
				"13":0.07926909702622853,
				"14":-0.06777095303919725,
				"15":0.10475273576117035,
				"16":0.22118222847814376,
				"17":-0.05817323267912327,
				"18":-0.24689164150765405,
				"19":-0.028033673762578603,
				"20":0.1251804974568525,
				"21":-0.10606159186832435,
				"22":0.2013866252868786,
				"23":-0.151488440156131,
				"24":0.09794805112779328
				}
				}],
			"biases":
			{"sx":1,
			"sy":1,
			"depth":8,
			"w":
			{"0":-0.07095232590976974,
			"1":-0.3160566704841975,
			"2":0.0189252146522301,
			"3":0.1240396161673323,
			"4":-0.001523982162835694,
			"5":0.023014426161218352,
			"6":0.03229238688882523,
			"7":-0.22808400091242237
			}
			}
		},

		{
			"out_depth":10,
			"sx":1,
			"sy":1,
			"out_sx":1,
			"layer_type":"pooling",
			"num_inputs":10
		},

		{
		"out_depth":10,
		"sx":1,
		"sy":1,
		"layer_type":"fc",
		"num_inputs":1152,
		"l1_decay_mul":0,
		"l2_decay_mul":1,
		"filters":[
		{"sx":1,
		"sy":1,
		"depth":1152,
		"w":
		{"0":0.04423180258289603,
		"1":-0.056202383756388904,
		"2":-0.03877033683667744,
		"3":-0.043774993670974385,
		"4":-0.024025974140669402,
		"5":-0.010858180673570134,
		"6":0.014611951714572313,
		"7":-0.041373174705827874,
		"8":0.01955996438919598,
		"9":-0.052724659811812964,
		"10":-0.03504217359724108,
		"11":-0.001904303331034768,
		"12":0.0377092901771429,
		"13":0.015290550782941151,
		"14":-0.016638605558085707,
		"15":-0.01655792032667018,
		"16":-0.06154621035889936,
		"17":-0.043862238632851,
		"18":-0.013612450992357555,
		"19":-0.019079405083216965,
		"20":-0.021407452713632723,
		"21":-0.01714717567195393,
		"22":-0.03780293730386458,
		"23":0.025847452318380006,
		"24":-0.013649559348260737,
		"25":-0.03525671223753992,
		"26":-0.019660896774064955,
		"27":-0.06453429644255249,
		"28":-0.0441655190727788,
		"29":0.030832212603326543,
		"30":0.013474461412829578,
		"31":-0.04121597046231293,
		"32":-0.06904815846834204,
		"33":-0.02078451918827399,
		"34":-0.11935814387501811,
		"35":0.004084411499730006,
		"36":-0.06451132038402636,
		"37":-0.06963054728722848,
		"38":-0.04029555858275763,
		"39":-0.08873735200651688,
		"40":-0.049101845582016114,
		"41":-0.005198270120028541,
		"42":-0.030399412035914224,
		"43":-0.09364518439641996,
		"44":-0.015722444334109686,
		"45":-0.05203499535393461,
		"46":-0.0006528103733487623,
		"47":-0.0786618073434165,
		"48":-0.017122904770122835,
		"49":0.03260298052059554,
		"50":-0.02408252886659592,
		"51":-0.11192765744424504,
		"52":-0.0341087997814388,
		"53":-0.041613778518227285,
		"54":-0.029369026725679988,
		"55":-0.023200933702050574,
		"56":0.08358696107033606,
		"57":0.09097775528176787,
		"58":0.03061930439277136,
		"59":-0.08099337105675888,
		"60":-0.01585152618137335,
		"61":-0.03440846983196572,
		"62":0.020810682971216573,
		"63":0.028705537723954688,
		"64":-0.008170970099631216,
		"65":0.004850260309739578,
		"66":0.05673918371136384,
		"67":-0.12674397737913992,
		"68":0.04668902981726815,
		"69":0.027358273976725748,
		"70":-0.03756048529185656,
		"71":0.011537877291831386,
		"72":0.06561334184351142,
		"73":0.0341301993009838,
		"74":0.05559346957899663,
		"75":-0.10801794724695943,
		"76":0.06288214420197032,
		"77":-0.04606757541394699,
		"78":0.007962975958104026,
		"79":0.008404330163526437,
		"80":0.05007122019218648,
		"81":0.0383734824853444,
		"82":0.07938142524233903,
		"83":-0.10284270581157894,
		"84":-0.01352466435553224,
		"85":-0.04065384969953043,
		"86":-0.02212327745498052,
		"87":-0.044033056556607865,
		"88":-0.02062445995516621,
		"89":0.003398578770767294,
		"90":0.05649814071974976,
		"91":-0.040513117703076126,
		"92":-0.01979749656224552,
		"93":-0.002630533581542733,
		"94":-0.0625375649517456,
		"95":0.026092994729171474,
		"96":-0.0006877673717870366,
		"97":0.01842065591206297,
		"98":0.030419882775865593,
		"99":0.0050566113347065055,
		"100":-0.0016747466184688017,
		"101":0.012113614903613757,
		"102":-0.06239374917530112,
		"103":-0.007095124864259272,
		"104":-0.026289795205957547,
		"105":-0.021618803253148855,
		"106":-0.008078659511159115,
		"107":-0.04606112407278874,
		"108":-0.005837690448095224,
		"109":-0.02238173525405636,
		"110":0.015195991630198542,
		"111":-0.03851464482971147,
		"112":-0.07593252364944568,
		"113":-0.015222956209335831,
		"114":-0.012680859719963472,
		"115":-0.01816863756860393,
		"116":0.007137723906301465,
		"117":-0.05712552417317769,
		"118":-0.02468227082850143,
		"119":-0.07463270360410254,
		"120":-0.09281803530241851,
		"121":0.0013215913309193549,
		"122":0.01206200853056679,
		"123":-0.06302198646099158,
		"124":-0.02744292978805841,
		"125":-0.07626854578896185,
		"126":-0.07404339307101108,
		"127":-0.051737046640261054,
		"128":-0.042898305321047304,
		"129":-0.023987202817406815,
		"130":-0.1021943862158694,
		"131":-0.13790639868134083,
		"132":0.035622067498825016,
		"133":-0.09548114462538573,
		"134":-0.09868892714217324,
		"135":-0.048766345576502654,
		"136":0.02691700596803334,
		"137":0.015556031182734268,
		"138":-0.07774631913372293,
		"139":-0.13900648188688397,
		"140":-0.039757268971008605,
		"141":-0.06761220230139824,
		"142":-0.07723709767217922,
		"143":0.024851558098935862,
		"144":0.0296574491341221,
		"145":0.04059957690250986,
		"146":0.0052571837378448385,
		"147":-0.19806749502694046,
		"148":-0.04457305551895873,
		"149":-0.07980512136157633,
		"150":-0.08996007300143892,
		"151":0.03956020679541951,
		"152":0.09381775081972368,
		"153":0.025757419945604553,
		"154":-0.0083065263298753,
		"155":-0.21533830496990353,
		"156":-0.06360691766477422,
		"157":-0.05052474130269323,
		"158":-0.047005456208674946,
		"159":0.07823954771802992,
		"160":0.13228423443602833,
		"161":0.10637198566972113,
		"162":0.023161195038764466,
		"163":-0.19289960019179261,
		"164":-0.015390083488425682,
		"165":-0.08274504588165914,
		"166":-0.10939828625747473,
		"167":0.0683182868469357,
		"168":0.08428652861973547,
		"169":0.11666335663078352,
		"170":0.0639124026813037,
		"171":-0.07714877425123655,
		"172":-0.015364671535721654,
		"173":-0.04677533882525708,
		"174":-0.06579736179886088,
		"175":-0.0015651884669551205,
		"176":0.049058483703454815,
		"177":-0.0106237787886097,
		"178":0.04217355160658828,
		"179":-0.10557513382353209,
		"180":-0.017540217079448365,
		"181":-0.01290274467670694,
		"182":-0.03842370533209701,
		"183":0.018227946512784088,
		"184":0.036071359299587186,
		"185":-0.010352470005253958,
		"186":0.06303377547132884,
		"187":-0.031981623798032564,
		"188":-0.07996166446488245,
		"189":0.029118327098897518,
		"190":0.02642804642542511,
		"191":0.01577396077262031,
		"192":0.0199294093037238,
		"193":-0.03474612955594371,
		"194":-0.0028921471678493046,
		"195":-0.06369622463934684,
		"196":-0.03130765490448762,
		"197":-0.05624136480579466,
		"198":-0.03812011982731471,
		"199":-0.02174021025656498,
		"200":-0.018519586579531462,
		"201":-0.0015841982620491332,
		"202":0.017436742730221718,
		"203":-0.028335237601679268,
		"204":-0.0012944645813763873,
		"205":0.008679863037614716,
		"206":-0.01709313869169079,
		"207":-0.022914936511406327,
		"208":-0.027553410905726494,
		"209":-0.06517371140629365,
		"210":-0.004346289341786797,
		"211":-0.062286967452418664,
		"212":0.06801442491508804,
		"213":-0.06272422073400125,
		"214":-0.15015035285289915,
		"215":-0.02406406892023312,
		"216":-0.10390072238559135,
		"217":-0.01401488147392057,
		"218":-0.028948857445547746,
		"219":-0.07445807164120306,
		"220":0.021212700688537856,
		"221":-0.07670664604234674,
		"222":-0.13160120503449557,
		"223":-0.04838428706535296,
		"224":-0.09535442568248619,
		"225":0.03020709236242799,
		"226":-0.10658422637667292,
		"227":-0.1048366335526567,
		"228":-0.10184457253704729,
		"229":-0.10072406451677916,
		"230":-0.08917275321514273,
		"231":-0.024471441042765822,
		"232":-0.07833643592076744,
		"233":0.03607077710895558,
		"234":-0.09594174829944545,
		"235":-0.07526383806305631,
		"236":-0.1044007263085735,
		"237":-0.06725883482433782,
		"238":-0.14695996531840377,
		"239":0.08539641326885991,
		"240":-0.08147088960110632,
		"241":0.11225829505701884,
		"242":-0.05073424196271574,
		"243":-0.1226494504024083,
		"244":-0.10219546005716666,
		"245":-0.045780956109867106,
		"246":-0.06845952335978456,
		"247":0.06785643370897769,
		"248":0.019083910939006455,
		"249":0.08137726684384905,
		"250":-0.009695660205671206,
		"251":-0.25691263899028405,
		"252":-0.2481493076538701,
		"253":-0.027651061486208092,
		"254":-0.08058337838217083,
		"255":0.06439943073860631,
		"256":0.024388420715097104,
		"257":0.060507117488656365,
		"258":0.033013455148888225,
		"259":-0.2962202913134779,
		"260":-0.16444904101221117,
		"261":0.02711651752927836,
		"262":-0.07371411515195428,
		"263":0.0694871717336188,
		"264":0.017399659650478128,
		"265":0.04519596958888805,
		"266":0.01252438716832895,
		"267":-0.23327661250361406,
		"268":-0.22430148344693082,
		"269":-0.041644495979327414,
		"270":-0.09646627510466019,
		"271":0.006557424169690613,
		"272":0.03257488143076462,
		"273":0.04110718180314972,
		"274":0.05094481020825618,
		"275":-0.1335808506775322,
		"276":-0.20123229638940454,
		"277":-0.017570299519561107,
		"278":-0.11529706631146941,
		"279":0.05091626188073863,
		"280":0.10642659870089356,
		"281":0.03941139369282461,
		"282":0.0951958273221086,
		"283":-0.04419303303414514,
		"284":-0.09021865458556277,
		"285":-0.046796382975928794,
		"286":-0.1500792182724749,
		"287":-0.01275005006925082,
		"288":-0.019314556752418725,
		"289":-0.042570691273208096,
		"290":0.0054592674357536244,
		"291":-0.05638398126331623,
		"292":0.016727879954697985,
		"293":-0.011311043549054364,
		"294":-0.0026993256314396578,
		"295":-0.07556198533098185,
		"296":0.026214270137409124,
		"297":-0.014906844115984096,
		"298":-0.01736788430918415,
		"299":-0.09235229739342068,
		"300":0.1278299077308017,
		"301":-0.06013981026038982,
		"302":-0.11422094586053895,
		"303":-0.020335265329896577,
		"304":-0.029899634165520897,
		"305":0.044310124591561376,
		"306":-0.04901006288176386,
		"307":-0.04736957703396851,
		"308":0.06290856252465975,
		"309":-0.031885289449117796,
		"310":-0.12366985414652822,
		"311":0.023966889767602837,
		"312":0.054321279850706186,
		"313":-0.0015952408318572059,
		"314":-0.15260706392181803,
		"315":-0.024091694688965676,
		"316":0.0027338743526910563,
		"317":-0.06406126051795423,
		"318":-0.08906860059966079,
		"319":0.09941256938677585,
		"320":0.01142655251154508,
		"321":0.003615619309368324,
		"322":-0.14357663934908457,
		"323":-0.0137629225509034,
		"324":-0.02024936131723631,
		"325":-0.037921350220428446,
		"326":-0.07427478206704054,
		"327":0.06895044122411334,
		"328":-0.032866187176128485,
		"329":-0.054755760346757665,
		"330":-0.2009240626607296,
		"331":-0.07693724422443712,
		"332":-0.06326091537438693,
		"333":-0.008771224017140183,
		"334":-0.0843916374947039,
		"335":0.04778028960914567,
		"336":-0.014490483344556144,
		"337":0.09139297636643982,
		"338":-0.17250047661717005,
		"339":-0.062421421573127085,
		"340":-0.19574085744676525,
		"341":-0.017935916151063713,
		"342":0.02131633901527294,
		"343":0.026041731645417898,
		"344":-0.048968177347381105,
		"345":0.08308400327446125,
		"346":-0.05566656967978635,
		"347":-0.14018072741313392,
		"348":-0.21616727343712755,
		"349":-0.053122079285711,
		"350":-0.02271864102962379,
		"351":0.011994643751360954,
		"352":0.04627638892666304,
		"353":0.10334756465620876,
		"354":0.04451244128909136,
		"355":-0.20440119882023497,
		"356":-0.2569732177653051,
		"357":0.022871623559290944,
		"358":0.01758616425908645,
		"359":-0.009054480553205124,
		"360":0.012436232974366605,
		"361":0.07516442561948095,
		"362":-0.0031272929950964027,
		"363":-0.1911594255918878,
		"364":-0.20448587846048447,
		"365":0.005186742916833058,
		"366":-0.007023599341291621,
		"367":-0.02351177109754544,
		"368":0.02335197897087815,
		"369":0.11252455311882327,
		"370":0.09241449542339383,
		"371":-0.1189517179455806,
		"372":-0.19198119155602633,
		"373":-0.035882365892882205,
		"374":-0.0803526766163077,
		"375":-0.010062811034271209,
		"376":0.045367183107783864,
		"377":0.14563746999065638,
		"378":0.07628407865153757,
		"379":-0.033932393830787146,
		"380":-0.13685906998185782,
		"381":-0.05518433172761514,
		"382":-0.20398745970692814,
		"383":0.007077245896181739,
		"384":0.021845017119936028,
		"385":0.04269388501393275,
		"386":0.00925163814868346,
		"387":-0.08181196419992907,
		"388":0.07138790493116673,
		"389":0.010474649817784029,
		"390":-0.05628286295329174,
		"391":-0.025405434221529112,
		"392":-0.04925968317508139,
		"393":0.09387818204358372,
		"394":-0.024405337700038377,
		"395":-0.011821256960821022,
		"396":0.05202638781685255,
		"397":-0.10873595817956094,
		"398":-0.08844293429055192,
		"399":0.04515888805144136,
		"400":-0.016155702149956295,
		"401":0.06426807383990592,
		"402":0.003908566531655714,
		"403":-0.038805146753850585,
		"404":0.09762078494287098,
		"405":-0.04361707337127223,
		"406":-0.1705834376882703,
		"407":0.05239604418059898,
		"408":-0.03311049658391363,
		"409":0.06758420495947794,
		"410":-0.09021624102534599,
		"411":0.0421572377727188,
		"412":0.047976227207756135,
		"413":-0.06463472969948995,
		"414":-0.16366478912584992,
		"415":0.09651999653601097,
		"416":-0.0027495566639164316,
		"417":0.02313913591340291,
		"418":-0.16644137161133069,
		"419":0.08095818969790654,
		"420":0.040462550638202165,
		"421":-0.07657642848567063,
		"422":-0.15207362670140648,
		"423":-0.009401163562574802,
		"424":-0.05313120378276928,
		"425":-0.015715881898300872,
		"426":-0.18498760341389667,
		"427":0.07020137308159059,
		"428":-0.12637299225827486,
		"429":-0.0679257128239654,
		"430":-0.09354149745492792,
		"431":-0.004242084586253822,
		"432":0.0029653144028145345,
		"433":-0.04667777274417386,
		"434":-0.21642264668661967,
		"435":0.05802674887389472,
		"436":-0.15868532444159736,
		"437":-0.04962267363475987,
		"438":-0.04902761219590371,
		"439":0.015753741933366146,
		"440":-0.17256044442348265,
		"441":-0.01569727200855952,
		"442":-0.2414731001593405,
		"443":-0.028615889373498845,
		"444":-0.29774462102466265,
		"445":-0.03217917203678585,
		"446":0.018114433565062035,
		"447":-0.10666012071303375,
		"448":-0.06006761336017863,
		"449":0.04720655228151975,
		"450":-0.03750386972890497,
		"451":-0.13377660364539942,
		"452":-0.22511229936311608,
		"453":0.013415687362733453,
		"454":0.03274122772434975,
		"455":-0.1322622699575998,
		"456":0.012832469082268365,
		"457":0.09256421677788015,
		"458":0.006489131254825042,
		"459":-0.1105110197503697,
		"460":-0.216329807809712,
		"461":-0.07757139310856158,
		"462":-0.018586332201044872,
		"463":-0.04718339213951066,
		"464":0.0697327453502216,
		"465":0.11841378032585237,
		"466":0.038461204968766156,
		"467":-0.08398841660718664,
		"468":-0.16328133737169684,
		"469":-0.016087774657255534,
		"470":-0.06317642620279115,
		"471":0.06044238744467474,
		"472":0.00372654711488172,
		"473":0.10057616284934684,
		"474":0.04530157490197441,
		"475":-0.04001924444234034,
		"476":-0.08588674285613358,
		"477":-0.08487813853556705,
		"478":-0.1703809330907923,
		"479":0.08309036965457452,
		"480":0.06633647814373779,
		"481":0.054683038953659314,
		"482":0.007902594935586878,
		"483":-0.07283349164975461,
		"484":0.08218928498690667,
		"485":-0.009641059326128435,
		"486":0.028275051865498127,
		"487":0.09432725724662126,
		"488":-0.05302903509586463,
		"489":0.12188551855504705,
		"490":-0.08066754286379214,
		"491":-0.024206668410265555,
		"492":-0.03209982022925279,
		"493":0.003414017779627387,
		"494":-0.10300782304973856,
		"495":0.0916805906999884,
		"496":0.040461066027496384,
		"497":0.10777118262282837,
		"498":-0.021682126658010375,
		"499":-0.022595176105658327,
		"500":0.05628592846944007,
		"501":-0.028167434670818732,
		"502":-0.13593201052541612,
		"503":0.09121713458480783,
		"504":-0.03170426085774241,
		"505":0.10296031839168483,
		"506":-0.04882992112700626,
		"507":0.054010089344082614,
		"508":0.12310693290268594,
		"509":-0.052769568370976336,
		"510":-0.22758011320273758,
		"511":0.051848845381779994,
		"512":-0.016072516386514458,
		"513":0.113088137637957,
		"514":-0.07465000741938885,
		"515":0.11513623805296716,
		"516":0.01177345582994413,
		"517":-0.12188689037455269,
		"518":-0.17755540015294685,
		"519":0.01713528168411091,
		"520":-0.06134441823851296,
		"521":0.027607254909212224,
		"522":-0.06841531769696468,
		"523":0.11469815725266108,
		"524":-0.09983983067698557,
		"525":-0.12919679734509107,
		"526":-0.15764397620801995,
		"527":0.05958306388948572,
		"528":-0.09025660756781956,
		"529":-0.06843276038054066,
		"530":-0.15893137762956008,
		"531":0.07025980780817002,
		"532":-0.09640963165699466,
		"533":-0.11532789463934653,
		"534":-0.14340430108066887,
		"535":-0.06339452312351873,
		"536":-0.03901841441815219,
		"537":-0.03844541321527376,
		"538":-0.2289210354674866,
		"539":-0.01599475407057277,
		"540":-0.21553315852934135,
		"541":-0.03993196912905846,
		"542":-0.06672077094061368,
		"543":-0.07584616494673932,
		"544":-0.08238640500144728,
		"545":0.016526186695589626,
		"546":-0.06137263379939354,
		"547":-0.017322804965556205,
		"548":-0.1685312623762572,
		"549":-0.007628476960856522,
		"550":-0.02989907707133575,
		"551":-0.06200113486469446,
		"552":-0.03636409919129711,
		"553":-0.0022481094838673415,
		"554":-0.0542380092343389,
		"555":0.03106711020058541,
		"556":-0.09882749997118762,
		"557":-0.04154981167586542,
		"558":-0.0590122803901306,
		"559":0.00955680003580268,
		"560":0.05089553896107823,
		"561":0.05560978840724592,
		"562":-0.06071104987809985,
		"563":-0.05666553666478478,
		"564":-0.05814454378596859,
		"565":0.0363491496471886,
		"566":-0.06369317205029239,
		"567":0.07635546492477899,
		"568":-0.024794636674869867,
		"569":0.12808306822254284,
		"570":0.05099214139904542,
		"571":-0.09821679527840735,
		"572":-0.08543241833246855,
		"573":-0.02349110581830167,
		"574":-0.19151075211879265,
		"575":0.08958494122957306,
		"576":0.07822919730997241,
		"577":0.04104455280835879,
		"578":-0.03257756842187114,
		"579":-0.08552156196791752,
		"580":0.005022504955247751,
		"581":0.04907198821544606,
		"582":0.0928921342328534,
		"583":0.06314247029111505,
		"584":-0.01739918454422134,
		"585":0.09994866353646875,
		"586":-0.05504943314055791,
		"587":-0.07447440131588767,
		"588":-0.09231418273082054,
		"589":0.0006139901248100246,
		"590":-0.018226045572800748,
		"591":0.10746587213572259,
		"592":0.06473269573878221,
		"593":0.062333201191050895,
		"594":-0.08132139249363973,
		"595":-0.014441333699609033,
		"596":-0.023963491798392658,
		"597":-0.029256398112882914,
		"598":-0.1461768655321007,
		"599":0.12446805727507515,
		"600":0.0721265320206723,
		"601":0.08695464423974884,
		"602":-0.06818486710997025,
		"603":0.07891802888889979,
		"604":0.10711309400261033,
		"605":-0.11231478523989027,
		"606":-0.2087807627606396,
		"607":0.14281079417366432,
		"608":-0.09091885681066761,
		"609":0.0935033618355508,
		"610":0.028891436994980497,
		"611":0.05616160154047046,
		"612":-0.010901520779205155,
		"613":-0.14198923882248005,
		"614":-0.22425848435540702,
		"615":0.08227911662206709,
		"616":-0.01910800478729074,
		"617":0.08476494832054676,
		"618":-0.03463633272252651,
		"619":0.08743553437555991,
		"620":-0.043894539191382836,
		"621":-0.16447877582007794,
		"622":-0.19456732123375223,
		"623":-0.006051027997878886,
		"624":-0.043395454318075614,
		"625":-0.07027049322381057,
		"626":-0.09571470488192174,
		"627":0.22191349464296317,
		"628":-0.017677883344908284,
		"629":-0.05367570508771803,
		"630":-0.1749297224483495,
		"631":-0.12649608477337546,
		"632":-0.068258268138294,
		"633":-0.07653120801034309,
		"634":-0.2220844378892976,
		"635":0.03616369150843899,
		"636":-0.10849932738466316,
		"637":-0.078368513856218,
		"638":-0.047783565916137714,
		"639":-0.14578564591734142,
		"640":-0.06267546500743655,
		"641":-0.01899390385179961,
		"642":-0.10671969424828406,
		"643":-0.027163589198714172,
		"644":-0.06725918145320468,
		"645":-0.11537124851656792,
		"646":-0.08652461484206407,
		"647":-0.03993671552378409,
		"648":-0.009746509071245682,
		"649":-0.023761993918626136,
		"650":-0.04793776089288592,
		"651":0.04254530526662492,
		"652":0.019914293564167504,
		"653":-0.03639000668619116,
		"654":-0.018629359177089674,
		"655":-0.004698662636031138,
		"656":0.016713674502041292,
		"657":0.0015872165994577918,
		"658":-0.09056419041092248,
		"659":-0.07613706382207194,
		"660":-0.018267864042723934,
		"661":0.03384457769345378,
		"662":-0.07319591213040608,
		"663":0.0381714045819644,
		"664":0.01922856442834795,
		"665":0.08136182417370787,
		"666":-0.01986376254201185,
		"667":0.011542102822585944,
		"668":0.003672521806377065,
		"669":-0.0007181169301513138,
		"670":-0.11111463850226402,
		"671":0.13251341146337633,
		"672":0.09483724437489846,
		"673":0.073835445067199,
		"674":-0.025805709475697543,
		"675":-0.07028381442507603,
		"676":-0.07222775282874187,
		"677":0.04869117062212158,
		"678":0.15155925893685193,
		"679":0.11863487403771755,
		"680":0.01404009206361194,
		"681":0.10082704532093477,
		"682":-0.09132222948557484,
		"683":-0.0447954541115339,
		"684":-0.18160795270554617,
		"685":0.035937091675679225,
		"686":-0.03369465958541103,
		"687":0.11318393181911901,
		"688":0.05422473035875352,
		"689":0.04529254520424728,
		"690":-0.10007652058484917,
		"691":0.06510826659172016,
		"692":-0.10000314511408377,
		"693":0.00016818668680893602,
		"694":-0.06532814942407601,
		"695":0.1590079618272573,
		"696":0.016178237672322716,
		"697":0.11066142597209627,
		"698":-0.03662450323302217,
		"699":0.10999994219995946,
		"700":-0.05270310193743732,
		"701":-0.04392419711476157,
		"702":-0.15220736222956469,
		"703":0.09150951837201018,
		"704":-0.020323347638379348,
		"705":0.09760148063389779,
		"706":-0.05942645708908204,
		"707":0.12966860850546214,
		"708":-0.025854520338932787,
		"709":-0.13137492456269728,
		"710":-0.22257944171146932,
		"711":0.01914959511562374,
		"712":-0.05708889778175432,
		"713":-0.022097456918673125,
		"714":-0.07789354877498006,
		"715":0.17586976971956456,
		"716":0.06483999892172734,
		"717":-0.14370443554967147,
		"718":-0.2268375313653156,
		"719":-0.02149107613657837,
		"720":-0.027985562872495904,
		"721":-0.10329849428106777,
		"722":-0.06902357408390261,
		"723":0.1089473649278549,
		"724":0.07488355363339544,
		"725":-0.17569917624601783,
		"726":-0.201573331591687,
		"727":-0.12842152695509884,
		"728":-0.045825082290960495,
		"729":-0.08485474019201361,
		"730":-0.19348390990937128,
		"731":-0.07362534526235542,
		"732":-0.024577258537286605,
		"733":-0.08695397256835295,
		"734":-0.07043133932707829,
		"735":-0.06146064297759368,
		"736":0.007675923294075686,
		"737":-0.01609560361192497,
		"738":-0.07102773455664543,
		"739":-0.06302130036754137,
		"740":-0.05332611437634028,
		"741":-0.02963028711432566,
		"742":-0.05831047376190102,
		"743":-0.08392735663552257,
		"744":0.0004932299095237824,
		"745":0.028421674834662413,
		"746":-0.06529052436975896,
		"747":0.06949340309888367,
		"748":0.07368302634215702,
		"749":0.012396654232648914,
		"750":-0.04019921646900139,
		"751":0.04090005269006179,
		"752":-0.025181093589212392,
		"753":0.013921518659298601,
		"754":-0.10152673379150341,
		"755":0.008166333151116036,
		"756":0.0037958174463430605,
		"757":0.010969344239805447,
		"758":-0.07801703312672337,
		"759":0.08450426661961771,
		"760":-0.003753424368359812,
		"761":0.10023497177937953,
		"762":-0.08712639867097467,
		"763":0.02966307293915644,
		"764":0.03404438311754724,
		"765":0.06648150981513187,
		"766":-0.0033554917103849236,
		"767":0.10391476002927784,
		"768":0.03219460130430955,
		"769":0.07153002294222181,
		"770":-0.03907161264341574,
		"771":-0.08459299259643369,
		"772":-0.12938503966406248,
		"773":0.0724464239295344,
		"774":0.044677823135220264,
		"775":0.04015131274712602,
		"776":0.0001673840711116909,
		"777":0.07753029005651085,
		"778":-0.06829447619623606,
		"779":0.03785713428429602,
		"780":-0.1678748858705401,
		"781":0.012963811097870443,
		"782":-0.024033482609564696,
		"783":0.13270725501947034,
		"784":-0.07982297312971601,
		"785":0.10209724225424541,
		"786":-0.05781660862894442,
		"787":0.07930556820775325,
		"788":-0.12481240947750677,
		"789":-0.0259351623343856,
		"790":-0.08957391781075286,
		"791":0.08492010614356613,
		"792":-0.06107098415217552,
		"793":0.093356847105757,
		"794":0.00008284131843249131,
		"795":0.05398554470431585,
		"796":-0.05106148690501347,
		"797":-0.02514223557449151,
		"798":-0.10210702482695398,
		"799":0.11472488387268405,
		"800":0.0024584574761537,
		"801":0.013048513445339468,
		"802":-0.06320128864151225,
		"803":0.11727908398042183,
		"804":-0.03295247887021221,
		"805":-0.004512364722913453,
		"806":-0.16286828457737274,
		"807":0.0222626677428193,
		"808":-0.034615872840773027,
		"809":0.03749148643387121,
		"810":0.06705746169033396,
		"811":0.14334442209845202,
		"812":-0.020083317245058966,
		"813":-0.18335985371953314,
		"814":-0.21226608655512355,
		"815":-0.052552022897450625,
		"816":-0.018176993546118052,
		"817":-0.09417051106804857,
		"818":-0.02431894144401053,
		"819":-0.03546015164139953,
		"820":0.050341569340715146,
		"821":-0.09804710497695898,
		"822":-0.16074812548185655,
		"823":-0.10350337952817734,
		"824":-0.059150274413958766,
		"825":-0.07092775347536125,
		"826":-0.12658322667683888,
		"827":-0.09967087566239126,
		"828":0.09623424412450911,
		"829":-0.0355845321279861,
		"830":-0.03846107050617262,
		"831":-0.00513980084577515,
		"832":-0.03018159050072971,
		"833":-0.02751809298826955,
		"834":-0.1447792405505311,
		"835":0.0353930606088012,
		"836":0.07500980859671104,
		"837":0.018847944296824733,
		"838":-0.0015972230272637278,
		"839":0.03340535501659415,
		"840":-0.04469089788791428,
		"841":-0.07527290056903267,
		"842":-0.10481460402170174,
		"843":0.11766759676053268,
		"844":0.0063678662824577644,
		"845":0.03669452528166444,
		"846":0.01355076127542328,
		"847":0.05479096573368551,
		"848":-0.02944370820999894,
		"849":0.03543301355320867,
		"850":-0.10496489328550072,
		"851":0.04150708435230274,
		"852":0.019042764772392747,
		"853":0.08221151273651205,
		"854":0.014971159274631688,
		"855":0.04367767532182378,
		"856":-0.003261853067657872,
		"857":0.03551238777229626,
		"858":-0.09488678346317765,
		"859":0.03478274312648874,
		"860":-0.004252475702434004,
		"861":0.043634571375284446,
		"862":-0.06213797011563921,
		"863":0.06400754800799793,
		"864":0.020969608579412508,
		"865":-0.036138299539458824,
		"866":-0.002875603508710024,
		"867":-0.08900292069117878,
		"868":-0.08552478440371698,
		"869":0.07165318572689626,
		"870":0.09513341535571167,
		"871":0.03702292411117265,
		"872":-0.06881089667661767,
		"873":0.033028668339826185,
		"874":-0.02315276982888052,
		"875":-0.03136227453761925,
		"876":-0.15093469930184983,
		"877":0.007318815538464314,
		"878":-0.002129578442352101,
		"879":0.0026691549354638812,
		"880":-0.09165354757122765,
		"881":0.0686703284027951,
		"882":0.0013071739893844377,
		"883":-0.007588315411556288,
		"884":-0.1336772856510169,
		"885":0.03904664298526586,
		"886":-0.003530242654163063,
		"887":-0.012902451205194036,
		"888":-0.03763106283990676,
		"889":0.007098155573547627,
		"890":0.00047352985247653016,
		"891":-0.03632822592376552,
		"892":-0.12706661284892587,
		"893":-0.04581034652939017,
		"894":-0.013948493735309904,
		"895":0.019490747815668594,
		"896":-0.01374767509720077,
		"897":0.014034746182328707,
		"898":0.057865569524543074,
		"899":-0.016478496535798155,
		"900":-0.025536725863942487,
		"901":0.010964490566278061,
		"902":-0.0031759446211700594,
		"903":-0.04920857159519403,
		"904":-0.034804702722977955,
		"905":-0.024580629017591858,
		"906":0.12676571123914535,
		"907":-0.06477179602481149,
		"908":0.009715029942406759,
		"909":-0.05702747229329367,
		"910":-0.010325263921978467,
		"911":-0.12699118594526085,
		"912":-0.00391011027313945,
		"913":-0.05404467265066466,
		"914":0.1039489153546367,
		"915":-0.08976900104983711,
		"916":0.07848509848227746,
		"917":-0.054687893708998625,
		"918":-0.024954097763243758,
		"919":-0.08481571255374412,
		"920":-0.007681707025996008,
		"921":-0.16847256925444457,
		"922":-0.03850807312496332,
		"923":-0.008896001869917835,
		"924":0.05999631632208297,
		"925":-0.028599990892903035,
		"926":-0.01414990900149482,
		"927":-0.04508783661948678,
		"928":-0.10140702243790024,
		"929":-0.12685244516213678,
		"930":-0.17932732288550474,
		"931":-0.009047591587641367,
		"932":0.03937564574714181,
		"933":0.0015649173206566773,
		"934":-0.013678211256300046,
		"935":-0.00287550316543985,
		"936":-0.04548633914805566,
		"937":-0.0506011153825108,
		"938":-0.2587709858262774,
		"939":-0.03343584034692087,
		"940":-0.03590709341315792,
		"941":-0.03222508663651439,
		"942":0.017707927402440444,
		"943":-0.03198839976543217,
		"944":-0.0779084845953204,
		"945":0.011395132919133926,
		"946":-0.19801988214809557,
		"947":0.028907185020366127,
		"948":0.03394057617752294,
		"949":0.0075054197438064255,
		"950":-0.014399180999076864,
		"951":0.05010027331077154,
		"952":-0.05479689917090049,
		"953":-0.01176843477767393,
		"954":-0.10597560320544117,
		"955":0.008791756985938901,
		"956":-0.027188816638443383,
		"957":-0.025619375282396144,
		"958":-0.013309179859651217,
		"959":-0.007678851936598069,
		"960":0.0035762605726724784,
		"961":0.009483149154945697,
		"962":-0.0312819342396377,
		"963":-0.06623675522431242,
		"964":-0.07163082488316903,
		"965":0.05414127695601394,
		"966":-0.00489687717988055,
		"967":-0.02722696387292321,
		"968":0.035292874574835195,
		"969":0.04436844939366152,
		"970":-0.004246521070357718,
		"971":-0.049083470034297624,
		"972":-0.10079062210372663,
		"973":0.00301976277966258,
		"974":0.08212374360176887,
		"975":-0.003242094568485576,
		"976":0.027024844744675643,
		"977":0.019156849932948545,
		"978":-0.03789389619114821,
		"979":0.04707034619986218,
		"980":-0.05986845057902215,
		"981":0.009146165194776474,
		"982":-0.020034368692061388,
		"983":-0.019438058960404174,
		"984":-0.0010195536558749876,
		"985":0.01736089352625226,
		"986":0.07086687943606572,
		"987":-0.05332284567456861,
		"988":-0.16510380478195555,
		"989":0.03638551357787686,
		"990":-0.02033583701144623,
		"991":-0.05119318957522756,
		"992":0.00959543876237324,
		"993":0.049059368073808514,
		"994":0.05519902098578998,
		"995":-0.18035812293355566,
		"996":-0.08869346387302125,
		"997":-0.03280885726825928,
		"998":-0.02807521503781048,
		"999":-0.0705633605143148,
		"1000":-0.04855466896835829,
		"1001":-0.017378628740864262,
		"1002":0.1413902831214132,
		"1003":-0.2200391916050332,
		"1004":-0.1367575077138041,
		"1005":-0.06748574083731647,
		"1006":0.03601890501923504,
		"1007":0.03205422558333645,
		"1008":-0.052731713748089014,
		"1009":-0.06075298908485049,
		"1010":0.027324920261053032,
		"1011":-0.04837688615133986,
		"1012":0.03359074782817176,
		"1013":-0.019497637612960302,
		"1014":-0.008035438163631265,
		"1015":-0.0755346411121663,
		"1016":-0.011357731495992425,
		"1017":-0.10294338557527105,
		"1018":-0.021705759907277234,
		"1019":-0.06407610253233008,
		"1020":-0.0197197690913643,
		"1021":-0.045915255152323455,
		"1022":-0.012722739433817106,
		"1023":-0.08555260985880336,
		"1024":-0.10726741388679856,
		"1025":-0.1614408744066109,
		"1026":-0.21716158690421203,
		"1027":-0.037617026957987514,
		"1028":-0.03392256281743899,
		"1029":0.016503241976028222,
		"1030":-0.031489020460873866,
		"1031":0.007305129113923065,
		"1032":-0.05124700000188139,
		"1033":-0.06762393384601251,
		"1034":-0.16856108172364717,
		"1035":-0.006053837976814141,
		"1036":0.03296060067711609,
		"1037":0.016562942033838044,
		"1038":-0.019038900624967135,
		"1039":-0.0191223804076928,
		"1040":0.017653488107382834,
		"1041":-0.02958583248607639,
		"1042":-0.18465304240139074,
		"1043":-0.05059316929019488,
		"1044":0.012434942808226815,
		"1045":-0.03096095649602758,
		"1046":0.01618676937877777,
		"1047":-0.013359676355046124,
		"1048":0.042447660827238345,
		"1049":-0.024817759079135117,
		"1050":-0.13953493226383443,
		"1051":0.021193093995653285,
		"1052":0.04483376401943417,
		"1053":-0.019934337020265314,
		"1054":0.04114687415525989,
		"1055":-0.0391553723091489,
		"1056":-0.01917280478427207,
		"1057":-0.044489276739228145,
		"1058":-0.0534250679583995,
		"1059":-0.03913302013361046,
		"1060":-0.0075331023435454576,
		"1061":0.03651377381302376,
		"1062":0.0007594902930812312,
		"1063":0.0074706625989159805,
		"1064":-0.07265301092815189,
		"1065":0.03349467265047967,
		"1066":0.013175154497537775,
		"1067":0.0018094521867068002,
		"1068":-0.030366495756819167,
		"1069":0.08718794375679409,
		"1070":0.07808144957679838,
		"1071":-0.017633200663238924,
		"1072":-0.011854538607546292,
		"1073":-0.07072294906111533,
		"1074":-0.029190337348514436,
		"1075":-0.010726048172722982,
		"1076":0.007837433330986122,
		"1077":0.04288287873779888,
		"1078":0.051749175745977656,
		"1079":0.04465938442355248,
		"1080":0.01917915968519742,
		"1081":-0.06894786416223163,
		"1082":0.0031800965984410067,
		"1083":-0.05515392703643197,
		"1084":-0.08025112264665664,
		"1085":0.06832146982732054,
		"1086":0.050788529559958,
		"1087":0.026023619659565754,
		"1088":-0.020672760215377527,
		"1089":-0.005579483950851457,
		"1090":-0.00705250566477494,
		"1091":-0.10504348183404812,
		"1092":-0.13729921501738498,
		"1093":0.06829108910798566,
		"1094":-0.045347057032178145,
		"1095":0.038218868542039444,
		"1096":-0.03452151013310622,
		"1097":-0.015237340304464476,
		"1098":-0.042145256251973844,
		"1099":-0.15663610366425865,
		"1100":-0.14874894239501454,
		"1101":0.02308865078901245,
		"1102":-0.008905744939761444,
		"1103":0.002842885069754962,
		"1104":-0.03826431863803574,
		"1105":-0.016302983782557866,
		"1106":0.013357177949989175,
		"1107":-0.15040043415710724,
		"1108":-0.14837413185273218,
		"1109":0.016254655143170506,
		"1110":0.01830022146474375,
		"1111":-0.09042595686725682,
		"1112":-0.07551796230869207,
		"1113":-0.07289912772383467,
		"1114":-0.04882900172011506,
		"1115":-0.10354665765204212,
		"1116":-0.049986894858183605,
		"1117":-0.03531648716819395,
		"1118":-0.035492973660184626,
		"1119":-0.07633100372201175,
		"1120":-0.17622523594903078,
		"1121":-0.031847578211667435,
		"1122":-0.091672507098617,
		"1123":-0.08199373509595322,
		"1124":-0.059873580129518,
		"1125":-0.04858320048551259,
		"1126":-0.07974909123174057,
		"1127":-0.05769517806864185,
		"1128":-0.06303280801649862,
		"1129":-0.07128525939500893,
		"1130":-0.10536395316220855,
		"1131":-0.07329789166194096,
		"1132":-0.011856067685169266,
		"1133":-0.12037103774523396,
		"1134":-0.05671041432581384,
		"1135":-0.07599185619930074,
		"1136":-0.06568458957963969,
		"1137":-0.07699747460931511,
		"1138":-0.1262854053731125,
		"1139":-0.06331309186485966,
		"1140":-0.017178768126434284,
		"1141":-0.10079471949029827,
		"1142":-0.07184882239910868,
		"1143":-0.009774521464327352,
		"1144":-0.017526001236759226,
		"1145":-0.013219581985759796,
		"1146":-0.061195528306649975,
		"1147":-0.050366910563184146,
		"1148":-0.02258557528949064,
		"1149":-0.03587653128351379,
		"1150":-0.06051205935182541,
		"1151":-0.04835337072932068
		}
		},

		{"sx":1,
		"sy":1,
		"depth":1152,
		"w":
		{"0":-0.033950458931419784,
		"1":0.026459867089787946,
		"2":0.0025447812318955213,
		"3":0.07478438808724075,
		"4":0.02249522318338769,
		"5":0.018145319388160323,
		"6":0.0447966823642486,
		"7":0.06910806463080753,
		"8":0.013588525256526617,
		"9":0.04534393405877454,
		"10":0.048571214990153586,
		"11":0.004029974934488557,
		"12":-0.008819097230444842,
		"13":-0.0071736704149396495,
		"14":0.013223698447862423,
		"15":0.06144837118285131,
		"16":-0.028558134275073803,
		"17":-0.05565273019384563,
		"18":-0.001321195508201233,
		"19":0.09049180336639721,
		"20":0.01259677561220292,
		"21":0.005435272779498218,
		"22":0.02650865860699372,
		"23":0.02161554266723966,
		"24":-0.052437191340389454,
		"25":-0.04034939255679037,
		"26":0.024146305943641533,
		"27":0.022396886149194013,
		"28":-0.061137001725575284,
		"29":0.031573202667506094,
		"30":-0.007414433978520042,
		"31":-0.032252357964122874,
		"32":-0.012719899012455956,
		"33":-0.11150040178708764,
		"34":-0.07530019215316931,
		"35":0.03231084188095103,
		"36":-0.046015409167622624,
		"37":0.0015734293672852186,
		"38":0.04156092464988899,
		"39":0.009254173715817675,
		"40":0.008237305010068339,
		"41":-0.0536097485624318,
		"42":-0.02993710257168189,
		"43":-0.00810953291324904,
		"44":-0.007601665251419928,
		"45":0.04490892908279565,
		"46":0.031334527239050045,
		"47":-0.02946381098247031,
		"48":0.016919384530628374,
		"49":0.053749980626822146,
		"50":0.01630499725160382,
		"51":0.015682487127476094,
		"52":-0.04313092329686791,
		"53":0.0466033166376072,
		"54":0.03973968677794187,
		"55":0.06595062948964765,
		"56":-0.046730127922660195,
		"57":-0.01695359326341008,
		"58":-0.0053634462048418475,
		"59":0.07560648113826486,
		"60":-0.06555362886508515,
		"61":0.008555753894819896,
		"62":0.031122987404756466,
		"63":-0.02227492342179984,
		"64":0.034050545696739126,
		"65":-0.04119560107700359,
		"66":-0.022291157746081595,
		"67":0.08771318996672339,
		"68":0.024113486406019697,
		"69":0.014029849416821609,
		"70":0.04498072188972626,
		"71":0.001007125627862574,
		"72":-0.05152790088723339,
		"73":-0.05125251475709049,
		"74":-0.01759036465519385,
		"75":0.07182819992695616,
		"76":0.05354136259822989,
		"77":-0.03762050552161358,
		"78":-0.009608888142273612,
		"79":0.019722761078326434,
		"80":0.009443533999058978,
		"81":0.013502556555325876,
		"82":-0.013658270841235401,
		"83":0.0749070082640608,
		"84":0.004576969277713654,
		"85":-0.005499292611679022,
		"86":-0.03100621909361399,
		"87":-0.028256743053559838,
		"88":-0.020923191264351593,
		"89":0.06231620354223787,
		"90":-0.03883655205176291,
		"91":-0.0019829515290779127,
		"92":0.02046002049847037,
		"93":-0.013781578295011,
		"94":0.010714059593263752,
		"95":0.033858202726052854,
		"96":0.031173874152569666,
		"97":-0.004606624891086508,
		"98":-0.027954492364107342,
		"99":0.06327046710876152,
		"100":0.040299680368752845,
		"101":0.027676521535829283,
		"102":0.05649041606311254,
		"103":-0.03667896379623009,
		"104":0.00614252118536764,
		"105":-0.020164311479408958,
		"106":-0.04007386585222795,
		"107":0.06173829180153193,
		"108":-0.002271421914328444,
		"109":-0.017567466258481868,
		"110":0.005934681021918817,
		"111":0.024185201682829578,
		"112":0.011418915218553358,
		"113":-0.021190346733224785,
		"114":-0.058343632015181314,
		"115":0.04354897498799688,
		"116":-0.010945350888933583,
		"117":-0.003255043522960359,
		"118":0.029416715152956237,
		"119":0.01530011103223526,
		"120":-0.06993729492277977,
		"121":-0.07794701267539272,
		"122":-0.07560416080328866,
		"123":0.043663990569039246,
		"124":-0.019654541882300064,
		"125":0.01913864815611011,
		"126":-0.07538531970252434,
		"127":-0.0512551244083986,
		"128":-0.03366843285224781,
		"129":-0.004137516291782034,
		"130":-0.051524222388253174,
		"131":0.14632670533879,
		"132":-0.1515291716855582,
		"133":-0.03938961583298682,
		"134":-0.006654703290964293,
		"135":-0.09592495511213787,
		"136":0.035696730239409745,
		"137":-0.03771228488302619,
		"138":-0.04608149274866873,
		"139":0.12556835618372617,
		"140":-0.15533637764371808,
		"141":-0.04687175675504905,
		"142":-0.03530898952630107,
		"143":-0.0021331635109690015,
		"144":-0.0854227109676906,
		"145":-0.019721808847215735,
		"146":-0.02984770956719049,
		"147":0.2279227153434283,
		"148":-0.036612906576914794,
		"149":-0.09958635425778933,
		"150":-0.08145923876496515,
		"151":0.03777116375953766,
		"152":-0.024270950547359314,
		"153":-0.014284195740706693,
		"154":-0.071684151611382,
		"155":0.15242564243605394,
		"156":0.11348796310147147,
		"157":-0.07847288398732895,
		"158":-0.038171228781139196,
		"159":-0.029828627088804065,
		"160":0.0004125616038120244,
		"161":-0.0600253838914536,
		"162":-0.10200472977364436,
		"163":0.11093867859098765,
		"164":0.13879275723054116,
		"165":-0.06491638010269819,
		"166":-0.10440662370144997,
		"167":-0.008992814823445626,
		"168":-0.053313173214375266,
		"169":-0.0011973003739294728,
		"170":-0.029808784392965866,
		"171":0.0640513823051447,
		"172":0.06163051445373425,
		"173":-0.029419678991084226,
		"174":-0.029718995870775658,
		"175":-0.028109256687753083,
		"176":-0.00030654790405727577,
		"177":-0.040818011451898575,
		"178":-0.016520256072316913,
		"179":0.016636038040131636,
		"180":0.012245493805305456,
		"181":-0.04594196439351319,
		"182":0.003057933982809217,
		"183":-0.008969014711448387,
		"184":-0.018373621076014233,
		"185":-0.08540617213349963,
		"186":-0.03174835958949974,
		"187":0.06335741735143972,
		"188":0.022344059794600392,
		"189":-0.01564384336738235,
		"190":0.012735171172944187,
		"191":-0.018785834321840184,
		"192":-0.03392532800227637,
		"193":0.01838183668784374,
		"194":-0.01270143793742355,
		"195":0.09059476230743321,
		"196":-0.021664287179748436,
		"197":0.033585039363572204,
		"198":0.013255233381251402,
		"199":0.00913359150443842,
		"200":-0.048091365124629824,
		"201":-0.06513612134172246,
		"202":-0.024509575958241252,
		"203":0.09727534596392,
		"204":0.025302084813751534,
		"205":0.03886478958668546,
		"206":-0.05345373066974919,
		"207":0.0022456796880844783,
		"208":-0.11101976616375923,
		"209":-0.11012075465409965,
		"210":0.011798741422489606,
		"211":0.11049192921863671,
		"212":-0.11271583438355788,
		"213":-0.041018115707138564,
		"214":-0.1675224425195393,
		"215":-0.06757316194309197,
		"216":-0.09258340540411772,
		"217":-0.1116053041537178,
		"218":-0.11682860518512453,
		"219":0.09136097167469484,
		"220":-0.12525710970992066,
		"221":-0.09949363433145861,
		"222":-0.10249823829344919,
		"223":-0.07421797920812225,
		"224":-0.1732430454202843,
		"225":-0.14103367854956614,
		"226":-0.08249421866739355,
		"227":0.14372350218364918,
		"228":-0.2235053391978853,
		"229":-0.08367011129481404,
		"230":-0.11340743975129676,
		"231":-0.08576608551432383,
		"232":-0.23725115143638614,
		"233":-0.06702316949509526,
		"234":-0.024807604215880255,
		"235":0.21165628700731862,
		"236":-0.18453420309217156,
		"237":-0.1559804652676082,
		"238":-0.12877925268082047,
		"239":-0.12472971682507308,
		"240":-0.20031842443596906,
		"241":-0.002353287707768359,
		"242":-0.02317673786351719,
		"243":0.1969415902224555,
		"244":0.0035093335144087867,
		"245":-0.19074663270628053,
		"246":-0.32502303731478144,
		"247":-0.07066249310219822,
		"248":-0.06611438310398697,
		"249":-0.0031120679765600807,
		"250":-0.02217837571532708,
		"251":0.09554961647401544,
		"252":0.04736256304429266,
		"253":-0.24901437579766333,
		"254":-0.3492793258762074,
		"255":-0.09061015621541876,
		"256":-0.11321868120982109,
		"257":0.019642988793815794,
		"258":-0.04756400256731049,
		"259":0.11535312475906807,
		"260":0.07276741293008404,
		"261":-0.20603922797906465,
		"262":-0.35452269644987383,
		"263":-0.02741831571842722,
		"264":0.0061371724704448365,
		"265":-0.022691914886381507,
		"266":0.004585813366988077,
		"267":0.07993827698690699,
		"268":0.06300198131855983,
		"269":-0.09458116597565176,
		"270":-0.18474427910784483,
		"271":0.059730672484440535,
		"272":-0.1229969798176768,
		"273":0.022864280815647637,
		"274":-0.0003842041255022303,
		"275":0.031060774074802098,
		"276":-0.06355743665011408,
		"277":-0.07971900705036554,
		"278":-0.1081983058037119,
		"279":0.011343304355232859,
		"280":0.03581086662837036,
		"281":-0.12347011221431367,
		"282":-0.05992180439628452,
		"283":0.06637352792592145,
		"284":0.0020904985373138892,
		"285":-0.020362228021363903,
		"286":-0.051568953048610304,
		"287":-0.07912964870504635,
		"288":-0.03183857209305727,
		"289":0.023814803001611637,
		"290":0.005829358198223116,
		"291":0.08574563912726574,
		"292":0.03694210820056844,
		"293":0.07002252676606285,
		"294":-0.023769249462590743,
		"295":-0.025154602081582024,
		"296":-0.05269672697791337,
		"297":-0.040318397965572975,
		"298":-0.006225010696772864,
		"299":0.039087849668032595,
		"300":-0.05511888604439051,
		"301":0.015743368966374016,
		"302":-0.04211405268320079,
		"303":-0.023259446753722143,
		"304":-0.10846358618853252,
		"305":-0.12187648886940096,
		"306":-0.08578378853336979,
		"307":0.09858901518370058,
		"308":-0.11447476169568453,
		"309":-0.07308891759519257,
		"310":-0.10316968158111144,
		"311":-0.10287541907100896,
		"312":-0.15347387227925513,
		"313":-0.17379055092443987,
		"314":-0.029633632677422698,
		"315":0.07942303838340975,
		"316":-0.202431823847766,
		"317":-0.07997587962421808,
		"318":-0.1772629093139399,
		"319":-0.1781830587338935,
		"320":-0.19284998550346022,
		"321":-0.158017528836532,
		"322":-0.08763766980693712,
		"323":0.07821386875226381,
		"324":-0.21093685534473067,
		"325":-0.1494017448639681,
		"326":-0.11537350963490856,
		"327":-0.15422109089684405,
		"328":-0.24162735032369873,
		"329":-0.07448292253370423,
		"330":-0.020742524430471965,
		"331":0.0863361046458004,
		"332":-0.14866616362687746,
		"333":-0.1518723778922856,
		"334":-0.16896694545862806,
		"335":-0.15159871907293834,
		"336":-0.18992884626022774,
		"337":0.025969503661593597,
		"338":0.03812771908901727,
		"339":0.06872118106657915,
		"340":-0.060662754967448045,
		"341":-0.2282838841927994,
		"342":-0.4195545062965656,
		"343":-0.07017590907337017,
		"344":-0.12605728344381997,
		"345":0.03682666322073189,
		"346":0.06433230452080468,
		"347":0.10773389077031077,
		"348":-0.036954592944908715,
		"349":-0.20492599363112318,
		"350":-0.46077367584936746,
		"351":-0.0501738967295534,
		"352":-0.029392037643616527,
		"353":-0.002659929206214433,
		"354":-0.013388170330423136,
		"355":0.07093819343424337,
		"356":0.011084403209200025,
		"357":-0.17109952068010958,
		"358":-0.42183723898590375,
		"359":0.024850160976968332,
		"360":-0.06147041545799736,
		"361":-0.044120615801462475,
		"362":-0.13223150064213834,
		"363":0.07900652012643744,
		"364":-0.02435285609442371,
		"365":-0.08147797692553022,
		"366":-0.22793877271708982,
		"367":0.011924936045123635,
		"368":-0.07819977958721042,
		"369":-0.04378754318285453,
		"370":-0.13534651713453527,
		"371":0.03842171231966111,
		"372":-0.04452166303083907,
		"373":-0.06456424617504647,
		"374":-0.19189698665772179,
		"375":-0.024618007714716575,
		"376":-0.01741194733142364,
		"377":-0.13559216553789022,
		"378":-0.1496987236673679,
		"379":0.0016101879179606633,
		"380":-0.018112431782967318,
		"381":-0.012000686457302605,
		"382":-0.012828001885287559,
		"383":-0.10598713797705041,
		"384":0.004375590257624918,
		"385":-0.039992527367027166,
		"386":0.012356892266513996,
		"387":0.13371687314798292,
		"388":-0.01795881542441082,
		"389":0.008713220064963207,
		"390":0.003476166902874269,
		"391":-0.007731754991305743,
		"392":-0.11399685288781969,
		"393":-0.09053774610013646,
		"394":-0.015574898125886895,
		"395":-0.025702737476424792,
		"396":-0.025358860401901717,
		"397":-0.04970593876854667,
		"398":-0.12360558461528356,
		"399":-0.07479802512583635,
		"400":-0.12561450571380633,
		"401":-0.12007128503811111,
		"402":-0.036769723095976245,
		"403":0.05880695515488059,
		"404":-0.12517614521145987,
		"405":-0.10062590774776145,
		"406":-0.15622459782687062,
		"407":-0.1304297425293057,
		"408":-0.1406450868000076,
		"409":-0.11452702361770056,
		"410":-0.0828532463330437,
		"411":-0.0006533030226831035,
		"412":-0.20678884329901,
		"413":-0.1397910575094297,
		"414":-0.12500869753342891,
		"415":-0.11856102636730073,
		"416":-0.20154976852356443,
		"417":-0.18982916672665984,
		"418":-0.1839781102252949,
		"419":-0.03104496437116254,
		"420":-0.16008269332218467,
		"421":-0.13354464487036571,
		"422":-0.11546370015303928,
		"423":-0.20003421577750408,
		"424":-0.16587562245414536,
		"425":-0.015651248762767113,
		"426":-0.12873311151425595,
		"427":-0.16663228480303074,
		"428":-0.24970052116928138,
		"429":-0.0562630111198114,
		"430":-0.15136423546530225,
		"431":-0.12775211251518284,
		"432":-0.19797933457117606,
		"433":0.001963666650506987,
		"434":-0.0461983794730929,
		"435":0.0569255031940783,
		"436":-0.06099017763584748,
		"437":-0.03888958053805393,
		"438":-0.193691800531422,
		"439":-0.027424290883343465,
		"440":-0.17694806421889175,
		"441":0.0765357236420396,
		"442":0.04635316884982941,
		"443":0.14165314465250164,
		"444":-0.10012882543843533,
		"445":-0.15102705422074278,
		"446":-0.3674895667144636,
		"447":-0.018002907315618398,
		"448":-0.0645114562431477,
		"449":0.07609387839170616,
		"450":-0.0100324172885107,
		"451":0.05357999481111719,
		"452":-0.0736396415090861,
		"453":-0.13733310773412394,
		"454":-0.2595097926755824,
		"455":-0.05899986981239647,
		"456":-0.0388269064532634,
		"457":-0.0473808290013151,
		"458":-0.13912629995670842,
		"459":0.06627400977103697,
		"460":-0.07931654053476137,
		"461":-0.0921166519080761,
		"462":-0.18574610759702068,
		"463":-0.05008891179748739,
		"464":-0.004108127938660025,
		"465":-0.062484079708306856,
		"466":-0.2557935481466893,
		"467":0.02502202619646588,
		"468":-0.027639984597779454,
		"469":-0.07268022821915794,
		"470":-0.08037927926844722,
		"471":-0.11324166308090715,
		"472":-0.025348398619299897,
		"473":-0.114787206871827,
		"474":-0.15453050600580936,
		"475":-0.02756124276181919,
		"476":-0.01171339776409139,
		"477":-0.05691245128828028,
		"478":-0.009982448773412811,
		"479":-0.09320561266993925,
		"480":0.012268769211390175,
		"481":-0.0036602941929596055,
		"482":0.08892402027968384,
		"483":0.04530560160170228,
		"484":0.020702042868154805,
		"485":0.00268431140351693,
		"486":-0.05046208372962268,
		"487":0.03181970473161298,
		"488":-0.05622506892369175,
		"489":-0.07198024003548609,
		"490":0.011439017168587948,
		"491":0.029844453069409995,
		"492":0.012502680951056123,
		"493":-0.02506995963353808,
		"494":-0.052987598308909076,
		"495":-0.05156174952294865,
		"496":-0.12574852342845266,
		"497":-0.1558582171941083,
		"498":0.009502619414001873,
		"499":0.029325883678039462,
		"500":-0.06803470079747137,
		"501":-0.06624947455906784,
		"502":-0.1690200129460978,
		"503":-0.1160638996171705,
		"504":-0.19055210530803182,
		"505":-0.2371933039787503,
		"506":-0.048357232830536875,
		"507":0.03987262200486314,
		"508":0.012381987339428042,
		"509":-0.14511127174396696,
		"510":-0.14372329980977355,
		"511":-0.1478869991543615,
		"512":-0.1947663784930774,
		"513":-0.16631977887034505,
		"514":-0.2619862899234158,
		"515":0.0014911818424930426,
		"516":-0.0991675999464463,
		"517":-0.15131095067101513,
		"518":-0.08734006408113386,
		"519":-0.1735223117747309,
		"520":-0.22891120503450404,
		"521":-0.0621417721273431,
		"522":-0.3050835761074473,
		"523":-0.14314114719225338,
		"524":-0.0484064793970667,
		"525":0.0008565625366101578,
		"526":-0.07648936540923863,
		"527":-0.11014629874414437,
		"528":-0.16170832534921878,
		"529":0.055943417696635564,
		"530":0.07429433332281589,
		"531":0.08595138970858136,
		"532":-0.02447765506171322,
		"533":-0.07639099381252552,
		"534":-0.07404647381661601,
		"535":-0.01254725226098135,
		"536":-0.13783129191287838,
		"537":0.07083504735422237,
		"538":0.03155403932625393,
		"539":0.055500298689886055,
		"540":-0.07144865101330455,
		"541":-0.19452630280531888,
		"542":-0.25490867677401435,
		"543":0.020402705747866887,
		"544":-0.1204978218300012,
		"545":0.012992530656808632,
		"546":-0.10580525373204709,
		"547":0.051570287879933584,
		"548":-0.12548117223296323,
		"549":-0.1181543556697436,
		"550":-0.3351317226481885,
		"551":-0.02987732598775353,
		"552":-0.06243871978215217,
		"553":-0.054876902654554596,
		"554":-0.17822606812552425,
		"555":0.03640499996066772,
		"556":-0.051704304399159524,
		"557":-0.04885229696048952,
		"558":-0.17941938931008958,
		"559":-0.03792400854065171,
		"560":-0.05388822195408851,
		"561":-0.0994393821504444,
		"562":-0.21857865435987564,
		"563":-0.00376477005251217,
		"564":-0.011260155277949227,
		"565":-0.09673827861270239,
		"566":-0.08025848710870348,
		"567":-0.11247325608813488,
		"568":-0.087893202512231,
		"569":-0.030640778822934454,
		"570":-0.09990505275609471,
		"571":-0.04317824871564759,
		"572":-0.09744075314005791,
		"573":-0.07544365827123542,
		"574":-0.03269670404667003,
		"575":-0.046311135662647655,
		"576":-0.0029815764808121445,
		"577":-0.02982368571377353,
		"578":0.025774370860862258,
		"579":0.09370531408795318,
		"580":-0.020569244946408237,
		"581":-0.013225458074422877,
		"582":-0.004580092569212217,
		"583":-0.016486400504079464,
		"584":-0.053198170903017414,
		"585":-0.02097043407538213,
		"586":0.00377562193785179,
		"587":0.12809053689524033,
		"588":-0.0006720033019806512,
		"589":-0.06840645578210107,
		"590":-0.10402055140923086,
		"591":-0.08949845177492605,
		"592":-0.11627606351181906,
		"593":-0.15599045253226573,
		"594":-0.026063618394695766,
		"595":0.09264948467258448,
		"596":-0.02894162704466128,
		"597":-0.08508679794405727,
		"598":-0.1627225819538508,
		"599":-0.10810945441735521,
		"600":-0.1672263343635492,
		"601":-0.23068508401903698,
		"602":-0.13046458531857327,
		"603":0.07343522327902008,
		"604":-0.055439087387215154,
		"605":-0.12521618309245433,
		"606":-0.20864895327651564,
		"607":-0.1615691708063179,
		"608":-0.14598612692455612,
		"609":-0.09612136990185043,
		"610":-0.27959643591711875,
		"611":0.06735459352175928,
		"612":-0.1187161118513079,
		"613":-0.12427116859154577,
		"614":-0.20815843089245653,
		"615":-0.05890358657466342,
		"616":-0.19621441619664548,
		"617":-0.019651745805398486,
		"618":-0.3134828228938752,
		"619":-0.048595253296450786,
		"620":0.04451579797360614,
		"621":-0.03547412423943498,
		"622":-0.13831525926127192,
		"623":-0.03090194720061157,
		"624":-0.13764596005409854,
		"625":0.05568517984863523,
		"626":0.09942291749715974,
		"627":0.15568248684497826,
		"628":0.006380298139345436,
		"629":-0.07097878283643644,
		"630":-0.16180511705507716,
		"631":-0.011555054804733345,
		"632":-0.0976306872718772,
		"633":0.03468305244773436,
		"634":-0.058560474115998545,
		"635":0.1023029490094918,
		"636":-0.08342652317630772,
		"637":-0.1483006661813285,
		"638":-0.2231087851530379,
		"639":0.04167779192545329,
		"640":-0.03560888670199581,
		"641":-0.03606491232958405,
		"642":-0.033962903541619974,
		"643":0.11564392951870534,
		"644":0.03018287715282062,
		"645":-0.07097859042346781,
		"646":-0.2400804224422376,
		"647":-0.049507223209082664,
		"648":0.018642480756044025,
		"649":-0.12750151606625726,
		"650":-0.10513171171114058,
		"651":0.0683075174466514,
		"652":-0.0053328280523928856,
		"653":-0.10381974333419956,
		"654":-0.1372187570072568,
		"655":-0.1419949316672246,
		"656":-0.036006370744932695,
		"657":-0.11754018657073453,
		"658":-0.1454395229478891,
		"659":-0.007111706668701604,
		"660":0.011568293662687643,
		"661":-0.051593969797020786,
		"662":-0.04246032414927763,
		"663":-0.12130587178158884,
		"664":-0.05200458785276498,
		"665":-0.07234191899369363,
		"666":-0.09517538677926642,
		"667":-0.05865089833257164,
		"668":-0.07463981090478439,
		"669":-0.03645875527037406,
		"670":-0.06279175368595295,
		"671":-0.0775665139609059,
		"672":-0.0030982582579755836,
		"673":-0.009625542432804602,
		"674":-0.002299573273639515,
		"675":0.07730190718099383,
		"676":-0.012005355060533358,
		"677":0.021134542023259886,
		"678":-0.024528777098038825,
		"679":-0.04791957442612696,
		"680":-0.021414890710139297,
		"681":-0.07604459822582885,
		"682":0.0032149403850006064,
		"683":0.09649705829009947,
		"684":-0.023542542057738987,
		"685":-0.017043051163415073,
		"686":-0.08080091449941607,
		"687":-0.08478917220560227,
		"688":-0.10073199307988069,
		"689":-0.14101248279026984,
		"690":-0.035127758802322634,
		"691":0.03580942768487172,
		"692":-0.013201381804532238,
		"693":-0.08804132395718839,
		"694":-0.11547207781233287,
		"695":-0.14029990231726955,
		"696":-0.2232083266179795,
		"697":-0.20122161013756432,
		"698":-0.1429424696775925,
		"699":0.08723453502517915,
		"700":-0.07702901127267386,
		"701":-0.17096932908656007,
		"702":-0.22689848652179034,
		"703":-0.13376047002152686,
		"704":-0.15038723546179386,
		"705":-0.07317188441198752,
		"706":-0.09511047228813,
		"707":0.03182411224247404,
		"708":-0.10944386710197944,
		"709":0.021117473604401325,
		"710":-0.12998087676862807,
		"711":-0.11331259502301849,
		"712":-0.133546860811409,
		"713":0.019936877311183585,
		"714":-0.14805413758865404,
		"715":0.04375014297222146,
		"716":0.0023656076932571032,
		"717":-0.055211788020731,
		"718":-0.13309807610276492,
		"719":-0.053875969959093745,
		"720":-0.06694300958393887,
		"721":0.07076208896561782,
		"722":0.05457981517085153,
		"723":0.26235308312252265,
		"724":0.009690399281752816,
		"725":0.02800996386182011,
		"726":-0.04975060521961574,
		"727":0.0776610230126108,
		"728":-0.09476639993891543,
		"729":0.03573603951030212,
		"730":-0.07777190218623596,
		"731":0.03131423694521311,
		"732":-0.028439660850891012,
		"733":-0.1024688803420939,
		"734":-0.1521603191396561,
		"735":0.026600521283168897,
		"736":0.002328521664434042,
		"737":-0.021600037317863093,
		"738":-0.023506549367780318,
		"739":0.09471164487156974,
		"740":0.022054799072161554,
		"741":-0.11076720349168341,
		"742":-0.1366917054286045,
		"743":-0.059573660115783245,
		"744":-0.04015119214757696,
		"745":-0.14556848754236296,
		"746":-0.12444012086559225,
		"747":0.045388458958335605,
		"748":-0.046444683410421565,
		"749":-0.056700743576651405,
		"750":-0.06329653332270432,
		"751":-0.09313421710506074,
		"752":-0.09231150641277837,
		"753":-0.09530248713664405,
		"754":-0.14505022244313928,
		"755":-0.05677881186573696,
		"756":-0.10649577363369785,
		"757":-0.03941814084496606,
		"758":-0.11153869453401982,
		"759":-0.0874420409968906,
		"760":-0.03651622436573672,
		"761":-0.07962754480821922,
		"762":-0.07517451027446764,
		"763":0.005670065362212559,
		"764":0.009051706953125134,
		"765":-0.03606138283680029,
		"766":0.001999101113579425,
		"767":-0.009732902642257693,
		"768":-0.011397498705824377,
		"769":-0.05453607949530148,
		"770":0.039594781626029495,
		"771":0.09291227727025356,
		"772":0.01331039930832187,
		"773":0.021619724078566414,
		"774":-0.02978011130842946,
		"775":0.004584957659000691,
		"776":-0.10027648454906068,
		"777":-0.077854851225553,
		"778":0.03992805938707305,
		"779":0.010091599458421857,
		"780":0.022587282583139117,
		"781":-0.056328604223216526,
		"782":-0.09556072236068962,
		"783":-0.1691320564497889,
		"784":-0.19780239373804256,
		"785":-0.1789210802386042,
		"786":-0.06089663209125292,
		"787":0.12303390224280795,
		"788":0.0770812839191604,
		"789":-0.09308070702938982,
		"790":-0.14285318408548223,
		"791":-0.07233542415722694,
		"792":-0.25600491233976136,
		"793":-0.0788064747428062,
		"794":-0.10740412509069383,
		"795":0.1400454570555433,
		"796":-0.069151865326836,
		"797":-0.19153003244159653,
		"798":-0.25554766910273985,
		"799":-0.1364727768217961,
		"800":-0.1845800378967632,
		"801":-0.11163587485870122,
		"802":-0.025425769462717802,
		"803":0.10963917314286933,
		"804":-0.036184648585356256,
		"805":-0.0850474041773654,
		"806":-0.14767699222022532,
		"807":-0.09729928505890525,
		"808":-0.06649727787644558,
		"809":0.012670211301648443,
		"810":-0.1161330299064664,
		"811":0.1487862072326134,
		"812":-0.07174442740613925,
		"813":-0.025372803178862414,
		"814":-0.07123547507382527,
		"815":-0.03855912909818207,
		"816":-0.1332468495863834,
		"817":0.08939047102718099,
		"818":0.03708533154347999,
		"819":0.14077652849048633,
		"820":-0.06159308975872424,
		"821":-0.08985991516499453,
		"822":-0.08700714472556946,
		"823":0.07082029228616887,
		"824":-0.06422713009393366,
		"825":0.04263643229652919,
		"826":0.09269770595215206,
		"827":0.06592798042591323,
		"828":-0.0008389696877208722,
		"829":-0.03018770364188246,
		"830":-0.12159063742894417,
		"831":-0.011039251400092627,
		"832":0.05625083838508183,
		"833":-0.07473051635706214,
		"834":0.05057925805049549,
		"835":0.08218847901201974,
		"836":0.02104480031106387,
		"837":-0.09072188997622292,
		"838":-0.1369009423965064,
		"839":-0.07117927363719696,
		"840":-0.01607296720534943,
		"841":-0.07010626882273602,
		"842":-0.013901634156315859,
		"843":-0.09888813909549347,
		"844":-0.06167602206667642,
		"845":-0.09657061333099644,
		"846":-0.06282514331206679,
		"847":-0.07041503718232765,
		"848":-0.04068932629244658,
		"849":-0.05680142260482117,
		"850":-0.050768474309911236,
		"851":-0.13064244889282467,
		"852":-0.05528299289574935,
		"853":0.006470798587526839,
		"854":-0.05646062867636789,
		"855":-0.05110196227837819,
		"856":-0.024199308026316018,
		"857":-0.05173060433440304,
		"858":-0.04412595542876605,
		"859":0.017138580448036678,
		"860":-0.006287866356702665,
		"861":-0.0038303944583023926,
		"862":0.02589418661093684,
		"863":-0.06157227190219979,
		"864":0.001532848177566172,
		"865":0.004346101483827364,
		"866":0.01905120818409061,
		"867":0.06574378621589412,
		"868":0.04510508836093232,
		"869":-0.04565580973488394,
		"870":-0.0675377615089056,
		"871":-0.019302903380178905,
		"872":-0.10920477530880272,
		"873":-0.039373232533796466,
		"874":0.03193401051467381,
		"875":0.09587181815144707,
		"876":0.0586530526573834,
		"877":-0.008420147514684284,
		"878":-0.04519852571519866,
		"879":-0.03834976321936547,
		"880":-0.05839517857990568,
		"881":-0.09397842250588755,
		"882":-0.043097786048644324,
		"883":0.07857651255381025,
		"884":0.08212620582622547,
		"885":-0.02257826118692105,
		"886":-0.0648837232001389,
		"887":-0.053849789209506366,
		"888":-0.22384898197821995,
		"889":-0.014035777531435556,
		"890":-0.04555207101436089,
		"891":0.1483877274987713,
		"892":0.06970512414610613,
		"893":-0.08940001535004505,
		"894":-0.1413837926389718,
		"895":-0.07871974128995878,
		"896":-0.1816815424197678,
		"897":-0.04419191649544626,
		"898":-0.10584560213657755,
		"899":0.2400084849127342,
		"900":-0.040006194750548695,
		"901":-0.07960257444810508,
		"902":-0.11832298095963655,
		"903":-0.05236010523901217,
		"904":-0.12949221116376863,
		"905":-0.04733289569009196,
		"906":-0.11555531937897943,
		"907":0.19431187676770922,
		"908":-0.10295915120013163,
		"909":-0.022752790983914844,
		"910":-0.005468427027457109,
		"911":-0.01216776504691048,
		"912":-0.10690722312586234,
		"913":0.05857641082462519,
		"914":-0.00029988717453847215,
		"915":0.06481956655656028,
		"916":-0.15159405283598315,
		"917":-0.011026132387811053,
		"918":-0.0872776095415468,
		"919":0.016593150778750603,
		"920":-0.0026667839993307694,
		"921":0.0450634169767724,
		"922":0.0993003216259881,
		"923":-0.00675861698494814,
		"924":-0.08711117769473019,
		"925":-0.03959560733089208,
		"926":-0.07924995176698252,
		"927":-0.12123386826064614,
		"928":0.012598693185658249,
		"929":0.0650006569186235,
		"930":0.08312750829742878,
		"931":-0.09881889345421363,
		"932":-0.11472404052156202,
		"933":0.02212605812306663,
		"934":-0.11338582399774848,
		"935":-0.11640571639088736,
		"936":0.0005676952981631354,
		"937":-0.01875207133142003,
		"938":0.055225708086822624,
		"939":-0.1378470829108452,
		"940":-0.08973462557774946,
		"941":-0.03316439751563652,
		"942":-0.17105796310144528,
		"943":-0.0828549733319527,
		"944":-0.062236728196870296,
		"945":-0.02550779430586852,
		"946":0.06078387625005292,
		"947":0.02887329475562816,
		"948":-0.04864990224918069,
		"949":-0.0681396812580802,
		"950":-0.097198947019493,
		"951":-0.04346721526865675,
		"952":0.0062291700595849785,
		"953":-0.012998906101276114,
		"954":0.007126862889957624,
		"955":0.00031405915080486897,
		"956":-0.002269253002410446,
		"957":0.016163845882907316,
		"958":-0.016882717164616225,
		"959":0.007078367165611971,
		"960":0.047768030761044016,
		"961":0.028700949475437568,
		"962":0.04568227704270145,
		"963":0.07337808607666575,
		"964":-0.00951327887773792,
		"965":-0.02536395834089468,
		"966":-0.02353962493785209,
		"967":-0.05780137384297423,
		"968":0.01613748965210753,
		"969":-0.04440807558476024,
		"970":0.013693953504691669,
		"971":0.10255183185255015,
		"972":-0.008332378252849508,
		"973":-0.042071949828905865,
		"974":-0.04241467157260479,
		"975":0.0015604416642237813,
		"976":0.0076297375430448905,
		"977":-0.09539815843581732,
		"978":0.024920775383251006,
		"979":0.07920176577105974,
		"980":0.04068513040108807,
		"981":-0.026284916356946027,
		"982":-0.002695249836510766,
		"983":-0.03178332867708861,
		"984":-0.05006370442093346,
		"985":-0.16512030026284208,
		"986":-0.13731645930888176,
		"987":0.1091713299341014,
		"988":0.030499581680732604,
		"989":-0.0458901451032636,
		"990":-0.036782653553200755,
		"991":-0.06359193379917144,
		"992":-0.1446282662586467,
		"993":-0.008377546879647153,
		"994":-0.15119448516381678,
		"995":0.25555585942001774,
		"996":0.022852513800662187,
		"997":-0.024383295813245956,
		"998":-0.09136711904355523,
		"999":-0.034504071857106744,
		"1000":-0.13796902548898055,
		"1001":0.023797599935808024,
		"1002":-0.08618559884563624,
		"1003":0.06283752998704784,
		"1004":-0.0696270410836095,
		"1005":-0.01143093875957645,
		"1006":0.03431762364124368,
		"1007":0.025886482040535345,
		"1008":-0.03536978314951164,
		"1009":0.03420076249742775,
		"1010":-0.0037451301001360337,
		"1011":0.004973483876148173,
		"1012":-0.09642158014377832,
		"1013":-0.05965062505313499,
		"1014":-0.028891218936932545,
		"1015":-0.014754740222783572,
		"1016":0.015179979975686615,
		"1017":0.06562116414069429,
		"1018":0.11679484665697618,
		"1019":-0.07409785469797592,
		"1020":-0.07201407056924096,
		"1021":-0.008813089532204879,
		"1022":-0.06213841301781732,
		"1023":-0.06679669601757174,
		"1024":-0.009312966121606253,
		"1025":-0.007287198997391007,
		"1026":0.06807986057215167,
		"1027":-0.10261389039791059,
		"1028":-0.10333300022723638,
		"1029":-0.003675393222679114,
		"1030":0.07447549996276231,
		"1031":-0.05864552073473356,
		"1032":-0.0002202702953298583,
		"1033":-0.017308359531459365,
		"1034":0.08306422243431746,
		"1035":-0.02744627275322599,
		"1036":-0.09412361796212097,
		"1037":-0.0841179233907418,
		"1038":-0.07745653271593402,
		"1039":-0.04312204958547154,
		"1040":0.004399541272383228,
		"1041":-0.08254243437600846,
		"1042":-0.024484275304913625,
		"1043":-0.007748919772337604,
		"1044":-0.026796105649594202,
		"1045":0.015553064166100838,
		"1046":-0.014776371570088367,
		"1047":-0.0990349609276822,
		"1048":-0.04059867307717926,
		"1049":0.032268032559718,
		"1050":0.03330483199390481,
		"1051":-0.005689003614518738,
		"1052":-0.016421086619418674,
		"1053":-0.06256467546715598,
		"1054":-0.014380384418747085,
		"1055":-0.044006268294563014,
		"1056":-0.06283600211464842,
		"1057":0.03254085112455433,
		"1058":-0.003750741518542493,
		"1059":0.03379616548842546,
		"1060":0.055640059477049295,
		"1061":0.012603905489649217,
		"1062":-0.03042748254596949,
		"1063":-0.03726865969580307,
		"1064":-0.07426652681223903,
		"1065":0.010669128464121774,
		"1066":-0.02522161106326234,
		"1067":0.0736715696930138,
		"1068":-0.02048777521013728,
		"1069":-0.03133918217812819,
		"1070":-0.03162806935765188,
		"1071":-0.008777810831500933,
		"1072":-0.05834522066077661,
		"1073":0.01627719677823148,
		"1074":-0.026301656132303806,
		"1075":0.062458850603226874,
		"1076":0.033544681919409056,
		"1077":-0.045656735634467135,
		"1078":-0.0177681046457842,
		"1079":-0.05535464913981999,
		"1080":-0.004418742344875594,
		"1081":-0.04485027357160534,
		"1082":-0.01957313241375522,
		"1083":0.0648612762034055,
		"1084":-0.010548267246336045,
		"1085":0.02033402247851212,
		"1086":-0.05529456634400504,
		"1087":-0.029832833448122188,
		"1088":-0.06659108555562099,
		"1089":0.022087659672804426,
		"1090":0.028733266557757056,
		"1091":0.028802507067432048,
		"1092":0.016884177962451438,
		"1093":-0.07805909565471446,
		"1094":-0.06264758482772537,
		"1095":-0.02395467195239182,
		"1096":-0.02473139374715947,
		"1097":0.058768852694402206,
		"1098":0.032019484556673444,
		"1099":0.1268708809913002,
		"1100":0.019600086988415262,
		"1101":-0.053362540696667966,
		"1102":-0.030361851538940977,
		"1103":-0.020982233345662533,
		"1104":-0.04408111387371287,
		"1105":0.04602852710013747,
		"1106":0.003024744247259511,
		"1107":0.03896012886464539,
		"1108":-0.027021928870139985,
		"1109":0.018280874398497456,
		"1110":-0.007521236111968889,
		"1111":-0.02748393510518563,
		"1112":0.037664434027153505,
		"1113":0.07246183106518256,
		"1114":0.0848874899230854,
		"1115":0.0394731231668266,
		"1116":-0.08806297764912809,
		"1117":-0.041788858685155125,
		"1118":0.019580037244479834,
		"1119":-0.03465011731505847,
		"1120":-0.04075124567914336,
		"1121":0.022348303569889642,
		"1122":0.05780395212997852,
		"1123":-0.004046931069092836,
		"1124":-0.014712628799496984,
		"1125":-0.030586343662787802,
		"1126":-0.014976350984427463,
		"1127":0.037520076904555756,
		"1128":-0.03258390964999682,
		"1129":0.028755902694741247,
		"1130":0.06678045417127708,
		"1131":-0.013211579415436433,
		"1132":0.03045324542288958,
		"1133":0.015581738320371696,
		"1134":-0.004948845641856636,
		"1135":-0.04091396410245562,
		"1136":-0.01720056597629521,
		"1137":0.02543762596345033,
		"1138":-0.02464049243924352,
		"1139":0.034329319707437383,
		"1140":0.013881963963424778,
		"1141":-0.014981135418236468,
		"1142":0.035076738074123315,
		"1143":-0.007970412749973104,
		"1144":-0.026281701593727367,
		"1145":-0.019860669522946798,
		"1146":0.035134040826618876,
		"1147":0.07342778552691008,
		"1148":0.026886299055030836,
		"1149":-0.029194057949618674,
		"1150":-0.010271043533658394,
		"1151":0.005014343491423735
		}
		},

		{"sx":1,
		"sy":1,
		"depth":1152,
		"w":
		{"0":0.0008606125223493096,
		"1":0.023721495636946692,
		"2":-0.027320824261518478,
		"3":0.0022286572961696975,
		"4":-0.014725352030834452,
		"5":0.00118978543319913,
		"6":0.00886254739961444,
		"7":0.017932252813359268,
		"8":0.008978072966608987,
		"9":0.0030897444203379265,
		"10":-0.06489533609288624,
		"11":0.009812169666662304,
		"12":0.016567839898087987,
		"13":-0.0036886126042804815,
		"14":-0.04106269659554469,
		"15":-0.007576620223193507,
		"16":0.07670693007695739,
		"17":0.04344308477824198,
		"18":0.024776915664590553,
		"19":0.0014496271913189839,
		"20":-0.0015094540254272718,
		"21":-0.020214331414342566,
		"22":0.020480814136345015,
		"23":0.029065366042317964,
		"24":0.08876317556491907,
		"25":-0.004721421992308121,
		"26":-0.015593471078283794,
		"27":-0.01467436457926902,
		"28":0.001328323255643928,
		"29":-0.005524179924103836,
		"30":0.0014906906136391749,
		"31":0.03919562732448299,
		"32":0.04638285402443092,
		"33":-0.005043151771163539,
		"34":-0.05241036632364867,
		"35":-0.048312471772858294,
		"36":-0.050402659844616296,
		"37":0.07429621108078387,
		"38":0.047300940441556104,
		"39":0.03898174420768933,
		"40":0.042928121912752804,
		"41":0.004997372444380398,
		"42":-0.01091039034512194,
		"43":-0.060683086885234085,
		"44":-0.055999255343167055,
		"45":0.07792152675324147,
		"46":0.038466527637980794,
		"47":0.017967164827427835,
		"48":0.04240544361970336,
		"49":0.008262817581903625,
		"50":-0.051953921513658984,
		"51":0.013907033278471622,
		"52":-0.03082824945445804,
		"53":0.08033195628720052,
		"54":0.022122820697247567,
		"55":0.006571820102002418,
		"56":0.06912395003861545,
		"57":0.0017109791178572685,
		"58":-0.029622591333364368,
		"59":-0.10986953505792572,
		"60":0.006794500131944736,
		"61":0.02579036142986442,
		"62":-0.023868394160415647,
		"63":0.0028001091153062267,
		"64":-0.028752587834833282,
		"65":0.10470292766644589,
		"66":0.061120715956921146,
		"67":-0.039390341376284325,
		"68":-0.07884485123410062,
		"69":0.03037212826548942,
		"70":0.022730716139615838,
		"71":0.009074406896612267,
		"72":0.020996727164791357,
		"73":0.030740629984025943,
		"74":0.026238922996489996,
		"75":-0.010169961149576566,
		"76":-0.1162372983603941,
		"77":-0.01567222761830217,
		"78":0.023667965409912048,
		"79":0.019618350422462322,
		"80":0.025900726856919937,
		"81":-0.03665803161604629,
		"82":0.016408277380423376,
		"83":-0.013397746072276433,
		"84":0.0036251695059663653,
		"85":-0.009776946317945127,
		"86":0.01116265432478237,
		"87":0.0091638198815756,
		"88":-0.007510712514919896,
		"89":-0.03127079920838472,
		"90":-0.06665111531632752,
		"91":0.05920534452770533,
		"92":-0.0461943033531571,
		"93":-0.07354194389104986,
		"94":-0.02046284794858699,
		"95":-0.0765192204865726,
		"96":-0.029407206810639103,
		"97":0.03750691516157155,
		"98":-0.037867297827485866,
		"99":0.08383011636553322,
		"100":-0.015672581943514553,
		"101":-0.03860501453962006,
		"102":-0.05773456760186856,
		"103":-0.004151751863434869,
		"104":0.016703506695638495,
		"105":-0.023961767465667624,
		"106":-0.05155613266020914,
		"107":0.012418981074070003,
		"108":-0.10664556310879285,
		"109":-0.021173726117666953,
		"110":0.025980906670669466,
		"111":-0.020660691320573396,
		"112":-0.04314740843461057,
		"113":-0.07311222413584208,
		"114":-0.06615355092223478,
		"115":0.016392907692906713,
		"116":-0.11773707460461508,
		"117":0.01994500694723993,
		"118":0.046315287051205224,
		"119":-0.022439538070515182,
		"120":-0.016109503139196894,
		"121":-0.0599022423584727,
		"122":-0.12239685300746343,
		"123":-0.014524239562394806,
		"124":-0.09482755598996939,
		"125":0.024992490832375407,
		"126":0.10979182108909463,
		"127":0.02002681713784105,
		"128":0.04023658185438292,
		"129":-0.03299363869730527,
		"130":0.012889602044866243,
		"131":-0.04330713081837827,
		"132":-0.06182776140574993,
		"133":0.001609826884596518,
		"134":0.11233762605411071,
		"135":-0.01877624105167234,
		"136":0.05281585428288838,
		"137":0.02982195296097351,
		"138":-0.03773592736883537,
		"139":-0.09995331522615777,
		"140":0.014255421151172204,
		"141":0.052139314576994826,
		"142":0.12712055610112596,
		"143":-0.00846434192957056,
		"144":0.16630671751580284,
		"145":-0.055178782578669414,
		"146":0.02318597146391263,
		"147":-0.1865944334505741,
		"148":-0.05155646359234521,
		"149":0.07067858448029266,
		"150":0.11091371652541643,
		"151":-0.03481889463322867,
		"152":0.11962894576247213,
		"153":0.006990171567104997,
		"154":-0.019919256465984567,
		"155":-0.1836549877502967,
		"156":-0.0952792414871037,
		"157":0.06355600420668274,
		"158":0.09004529468843009,
		"159":-0.014654941749974244,
		"160":0.023910199987447766,
		"161":0.06847328328736887,
		"162":0.009699396874732848,
		"163":-0.18004893810046793,
		"164":-0.12167605807229648,
		"165":0.04873773662158789,
		"166":-0.0027782120778058164,
		"167":-0.023586221152818436,
		"168":-0.01456691485399355,
		"169":-0.009560641872686595,
		"170":-0.01153225188357763,
		"171":-0.07293125929918189,
		"172":-0.15421730757692897,
		"173":-0.05240932041988138,
		"174":-0.05214005510265652,
		"175":-0.04261565483365713,
		"176":0.002381832227537351,
		"177":0.02384242401059699,
		"178":0.0018450801427754996,
		"179":-0.12826136890447906,
		"180":-0.031177717368290864,
		"181":-0.03307125483088805,
		"182":-0.043602539918681515,
		"183":-0.11171960669905061,
		"184":0.014480684499845424,
		"185":-0.08068897318978625,
		"186":-0.03805428317728762,
		"187":-0.033243963508315356,
		"188":-0.03328562236723056,
		"189":-0.053813847429163716,
		"190":-0.04934486731817392,
		"191":-0.05198231486920807,
		"192":-0.037495147741700395,
		"193":-0.010585156248724272,
		"194":-0.0340026783393406,
		"195":0.03723701076774571,
		"196":-0.09101457191469534,
		"197":-0.038132790397949,
		"198":-0.015120492639800247,
		"199":-0.023037798085131428,
		"200":-0.04601247621359398,
		"201":-0.08318252893419721,
		"202":-0.009465187033105695,
		"203":0.03150661766895381,
		"204":-0.102795363556087,
		"205":0.02777280269682266,
		"206":-0.015776106396480638,
		"207":0.019252557977284538,
		"208":0.009788636745112305,
		"209":-0.05346893889095412,
		"210":-0.020833285691700256,
		"211":0.030402021063997087,
		"212":-0.08411644856175418,
		"213":0.015890252990328726,
		"214":0.056226826425968615,
		"215":-0.003863369469567893,
		"216":-0.04386907687502035,
		"217":-0.12022754751034277,
		"218":-0.0345551720633794,
		"219":-0.07356383471712019,
		"220":-0.01927068036456314,
		"221":0.03794682128464181,
		"222":0.024279157434041087,
		"223":-0.05519844762105025,
		"224":-0.003360820076747201,
		"225":-0.06512109726903173,
		"226":-0.059491074017135645,
		"227":0.028920136505711323,
		"228":-0.05701359094997003,
		"229":0.0822731423386761,
		"230":0.14975798926550227,
		"231":0.010409017719759335,
		"232":-0.026897712695179894,
		"233":-0.060595913483318144,
		"234":-0.006514425838164446,
		"235":-0.033509404567224677,
		"236":-0.06620330785770359,
		"237":0.07526517917775483,
		"238":0.13713457554841396,
		"239":-0.05968501034828827,
		"240":0.06341470003359767,
		"241":-0.049876558195021084,
		"242":0.08382320168005403,
		"243":-0.12298343437556013,
		"244":-0.13843645700354415,
		"245":0.020161941121439972,
		"246":0.11227120018379132,
		"247":-0.0017340071572449602,
		"248":0.03229270761191536,
		"249":-0.006504638839375699,
		"250":0.08357168942626252,
		"251":-0.17112226471433103,
		"252":-0.16335247526496485,
		"253":0.05587963908059092,
		"254":0.08791157804478826,
		"255":0.02137080577615212,
		"256":0.02053899042058671,
		"257":0.006800639694029463,
		"258":0.06534938419448558,
		"259":-0.15300108210283955,
		"260":-0.2132816774961669,
		"261":-0.017758447222611478,
		"262":0.02666750884014495,
		"263":-0.04339475447591281,
		"264":-0.011176120501483587,
		"265":0.009627227268380225,
		"266":-0.05511047038644841,
		"267":-0.14979041816914312,
		"268":-0.1537260290417656,
		"269":-0.011271083369408028,
		"270":-0.02844690044429609,
		"271":-0.12851177776309924,
		"272":0.005741788108745397,
		"273":-0.037159798978142304,
		"274":-0.06449080292149795,
		"275":-0.06148530682980903,
		"276":-0.17191871997246141,
		"277":-0.09432673630853776,
		"278":-0.24560524656822488,
		"279":-0.09289480901821774,
		"280":-0.0688808079080628,
		"281":-0.05551783287861658,
		"282":-0.05677643971481908,
		"283":-0.023381090085766755,
		"284":-0.09015875041551277,
		"285":-0.09959657124207168,
		"286":-0.16976528203064237,
		"287":-0.062291981041028996,
		"288":-0.01113471530347354,
		"289":-0.031238102779185584,
		"290":-0.05596839962860602,
		"291":0.03810939786088344,
		"292":-0.06740082292783621,
		"293":-0.012135873354739393,
		"294":-0.04192413002772265,
		"295":-0.06662643670417698,
		"296":-0.08011581582662944,
		"297":-0.099846006759465,
		"298":-0.037729042600673085,
		"299":0.04192303706384146,
		"300":-0.10073607849511892,
		"301":-0.01852428733111728,
		"302":0.008533587705683826,
		"303":-0.00987911649557198,
		"304":-0.06081380171730742,
		"305":-0.14127107197007105,
		"306":-0.06371704065271172,
		"307":0.0023273859809477774,
		"308":-0.10075161233595512,
		"309":-0.09606705693808967,
		"310":-0.0012415558732160768,
		"311":-0.1149153367174292,
		"312":-0.07734293303340127,
		"313":-0.2198902559556342,
		"314":-0.12074081407897526,
		"315":-0.03224928619224656,
		"316":-0.15672443554044774,
		"317":-0.04071003639669731,
		"318":0.08166214890636432,
		"319":-0.06294879689477717,
		"320":-0.08335631145991555,
		"321":-0.17337746043442084,
		"322":-0.09318255935628084,
		"323":-0.060391494534787794,
		"324":-0.1749318665802388,
		"325":-0.04651920029525341,
		"326":0.075072207634172,
		"327":-0.10833423613508818,
		"328":-0.02736365321778058,
		"329":-0.19142480902201064,
		"330":-0.15318762884032194,
		"331":-0.030605998691427792,
		"332":-0.19355236341002893,
		"333":-0.03898224049369887,
		"334":0.06324707023586512,
		"335":-0.10365869777094665,
		"336":0.03682599237454858,
		"337":-0.0764332764777621,
		"338":-0.07447104164025717,
		"339":-0.03672663048264599,
		"340":-0.10515489435215468,
		"341":-0.007323599826494198,
		"342":0.10872215957902275,
		"343":-0.08554551798657074,
		"344":-0.02787545960429453,
		"345":-0.059560016776919876,
		"346":-0.057523045850133694,
		"347":0.009018303954873304,
		"348":-0.08726811606522812,
		"349":-0.017980578879151783,
		"350":0.044166490702716506,
		"351":-0.09008596158317335,
		"352":0.018896152989256825,
		"353":0.047084822714678655,
		"354":-0.026895359710546223,
		"355":-0.18265490282807015,
		"356":-0.09923222778716159,
		"357":-0.044015513244638114,
		"358":0.0164452350641288,
		"359":-0.11122190548932691,
		"360":-0.004759885591634012,
		"361":-0.012269035118667598,
		"362":-0.09162485898537508,
		"363":-0.10931619075413691,
		"364":-0.16263302388092324,
		"365":-0.15104215366249316,
		"366":-0.068970753184074,
		"367":-0.027437775404238814,
		"368":-0.06782851667849203,
		"369":-0.03581587878578688,
		"370":-0.0012279503022796243,
		"371":-0.0923768199742242,
		"372":-0.11456673619692526,
		"373":-0.09577541765810865,
		"374":-0.2927565348269192,
		"375":-0.09237373199976676,
		"376":-0.07983319780458045,
		"377":-0.08844200629889945,
		"378":-0.12788847884834176,
		"379":-0.06284088933463083,
		"380":-0.047538430480426955,
		"381":-0.10180110061495569,
		"382":-0.2773398987845801,
		"383":-0.08361813272522997,
		"384":-0.0514677832811256,
		"385":-0.06112343910113465,
		"386":-0.01251005803592913,
		"387":0.05966598267710573,
		"388":-0.1257665881369777,
		"389":-0.013791027277036436,
		"390":0.020986205824612036,
		"391":-0.008075836444043768,
		"392":-0.03925279126013696,
		"393":-0.1504606767802907,
		"394":-0.004838186914673175,
		"395":0.08470781797666413,
		"396":0.019900706741504105,
		"397":-0.011397749472097428,
		"398":-0.025370008439070856,
		"399":-0.1264698139239379,
		"400":-0.017584464584641364,
		"401":-0.23136111713153373,
		"402":-0.01532402814401555,
		"403":0.021542737908294113,
		"404":-0.03813531795295672,
		"405":0.010963175281127948,
		"406":0.04420847396449196,
		"407":-0.13087057164050295,
		"408":-0.17089214571679132,
		"409":-0.24806699329907825,
		"410":-0.050526708743710305,
		"411":-0.06551753031809779,
		"412":-0.08390618522888384,
		"413":-0.0609203018222358,
		"414":0.07466747830983154,
		"415":-0.23011094456374315,
		"416":-0.13433939607940984,
		"417":-0.2273347881327882,
		"418":-0.03781621932395409,
		"419":-0.13056329713223763,
		"420":-0.1115529740621535,
		"421":0.0016479551175239346,
		"422":0.10122865950011165,
		"423":-0.15364435471791169,
		"424":-0.13596917475600762,
		"425":-0.21004261863879212,
		"426":-0.04192930226974931,
		"427":-0.09912090380401575,
		"428":-0.12873129958225682,
		"429":-0.004776707568059709,
		"430":0.12534676196670402,
		"431":-0.23612481096416701,
		"432":-0.14045308699499767,
		"433":-0.13883845270195688,
		"434":-0.11373981663856612,
		"435":-0.06187456371118413,
		"436":-0.013512486819326272,
		"437":-0.06370152507937392,
		"438":0.08047777764945094,
		"439":-0.09052322677167884,
		"440":-0.09358626504286513,
		"441":-0.023382039696578674,
		"442":-0.09381369968504517,
		"443":-0.03133114114224946,
		"444":0.05171391309693362,
		"445":0.0014651260536566006,
		"446":-0.046891508035470535,
		"447":-0.10626570553144131,
		"448":-0.02930700548942516,
		"449":-0.038535246685380595,
		"450":-0.044985911234098896,
		"451":0.017215561865474134,
		"452":0.016918510486623538,
		"453":-0.034974186149654106,
		"454":-0.10993359055715914,
		"455":0.014965203206646124,
		"456":-0.03404461639527597,
		"457":-0.012183851093303173,
		"458":-0.0375567159016378,
		"459":-0.03315029544096648,
		"460":-0.032681076678009194,
		"461":-0.10010847617338668,
		"462":-0.18860829353305453,
		"463":-0.0033673596391603612,
		"464":-0.06931399064021494,
		"465":-0.03246965649144146,
		"466":-0.0887060990481901,
		"467":-0.04685672130067055,
		"468":0.02657806747219156,
		"469":-0.10403444444955574,
		"470":-0.320594380639746,
		"471":-0.021489223761992162,
		"472":-0.00705219357217278,
		"473":-0.056940661229068955,
		"474":-0.08759589160393871,
		"475":-0.028260109065835537,
		"476":-0.0398795790987273,
		"477":-0.019300934559550318,
		"478":-0.19414395113336075,
		"479":-0.04563250192782143,
		"480":-0.05838421402454467,
		"481":-0.035513584188220655,
		"482":0.019752930726508338,
		"483":0.07107798645783843,
		"484":-0.05049452912552163,
		"485":-0.05198663666603451,
		"486":-0.07886577993066156,
		"487":-0.0644000680745432,
		"488":-0.07336592462700119,
		"489":-0.12550461971688454,
		"490":0.05358107965578627,
		"491":0.0346399109807978,
		"492":0.09535121699607044,
		"493":-0.03668773703564407,
		"494":0.015723494503577306,
		"495":-0.11894690786334296,
		"496":-0.09093450515752619,
		"497":-0.2084247960878301,
		"498":0.04172343295523954,
		"499":-0.0372895271280717,
		"500":0.1477525743259215,
		"501":-0.07398846326948894,
		"502":0.01827305961615652,
		"503":-0.1960814197165798,
		"504":-0.19306811550506528,
		"505":-0.14877557396079316,
		"506":0.11015814756070909,
		"507":-0.1265117290147389,
		"508":0.08832493775681426,
		"509":-0.07827230450613659,
		"510":0.018979247652630017,
		"511":-0.14576027986589274,
		"512":-0.2059227878892262,
		"513":-0.15641563091713273,
		"514":0.06740715601688609,
		"515":-0.13951702714260822,
		"516":-0.06472002348471506,
		"517":-0.032248211895208434,
		"518":-0.0236715974888887,
		"519":-0.14748859845787302,
		"520":-0.14580084597505505,
		"521":-0.11308029941641705,
		"522":0.04407557660972207,
		"523":-0.17788545417433235,
		"524":-0.0550670271626579,
		"525":-0.02567351318690489,
		"526":-0.008115324193560002,
		"527":-0.1682210961160987,
		"528":-0.10481250394677712,
		"529":-0.07141241933518067,
		"530":0.05036367533010383,
		"531":-0.037821692066924976,
		"532":0.010163081072711449,
		"533":-0.08064340981521556,
		"534":-0.056047598192278024,
		"535":-0.07822061525823185,
		"536":-0.06787886575383695,
		"537":-0.08852687997669405,
		"538":0.019477041216581434,
		"539":0.01967484595911272,
		"540":0.06846149195976291,
		"541":-0.06032230930420606,
		"542":-0.07528553078216417,
		"543":-0.055577098845289066,
		"544":0.0011580821569019731,
		"545":-0.09012099369765256,
		"546":-0.03341298636050588,
		"547":-0.007079663533980076,
		"548":0.018038577762407682,
		"549":-0.08335842621275363,
		"550":-0.1476516140915313,
		"551":0.04489962985323722,
		"552":0.03320308226797836,
		"553":-0.08437614027422095,
		"554":-0.15578832394678926,
		"555":0.05537776307063484,
		"556":0.04857542873767827,
		"557":-0.073422652299358,
		"558":-0.18942359618010926,
		"559":0.0755180757944273,
		"560":-0.008134574942043003,
		"561":-0.041992128269567504,
		"562":-0.0980845118415218,
		"563":0.04080034175022333,
		"564":0.07173172021890863,
		"565":-0.03388917494524526,
		"566":-0.1369361635226238,
		"567":0.02826586258215483,
		"568":-0.037146468101960824,
		"569":-0.09250012219526944,
		"570":0.014179276547489976,
		"571":0.001257359250638055,
		"572":0.021285828522862833,
		"573":-0.014935680911630477,
		"574":-0.09284859533174306,
		"575":-0.018245972883504113,
		"576":-0.04778445635786771,
		"577":-0.0679189459753809,
		"578":-0.029498650101144126,
		"579":0.010764150440940652,
		"580":0.11459082805225952,
		"581":-0.1186204601002822,
		"582":-0.1592225679529055,
		"583":-0.05521154982739985,
		"584":-0.047515321769946196,
		"585":-0.05987814981995746,
		"586":-0.017179955611370524,
		"587":0.005099995138323703,
		"588":0.16099430697784003,
		"589":-0.1509947039001346,
		"590":-0.17856417287300802,
		"591":-0.11709055109193013,
		"592":-0.12096158434941942,
		"593":-0.11359166701473862,
		"594":-0.06638689208477011,
		"595":-0.11245874156975941,
		"596":0.19416681393171634,
		"597":-0.14791730799676858,
		"598":-0.0587906124458809,
		"599":-0.07381019818785484,
		"600":-0.1262968748502494,
		"601":-0.08760225714565295,
		"602":-0.014144150135180458,
		"603":-0.206553152821772,
		"604":0.027854766935688315,
		"605":-0.09602834713850282,
		"606":-0.03799641577950528,
		"607":-0.048352368642581994,
		"608":-0.08995507480831419,
		"609":-0.1181608420449703,
		"610":-0.03393545178139877,
		"611":-0.24442027578373815,
		"612":0.04850888987831052,
		"613":-0.040559545077427525,
		"614":-0.08028310260109399,
		"615":-0.06731047554238706,
		"616":-0.024983498777685492,
		"617":-0.05583302716892255,
		"618":-0.021385501075027225,
		"619":-0.2043697668673415,
		"620":-0.04155148007283786,
		"621":-0.002296962601657926,
		"622":-0.09418345587167125,
		"623":-0.016994553464834465,
		"624":0.05270665453296802,
		"625":-0.12233736786194156,
		"626":0.05081816443777834,
		"627":-0.16789766549453794,
		"628":-0.016974634378166025,
		"629":-0.020734363472207484,
		"630":-0.13844138818376486,
		"631":-0.0719451058029783,
		"632":-0.018094209611846223,
		"633":-0.009039687186102756,
		"634":-0.022958019445118202,
		"635":-0.001235648473412585,
		"636":0.018377611395220296,
		"637":0.039035723037780024,
		"638":-0.1530538817413752,
		"639":-0.03875876984288589,
		"640":0.011333069061072223,
		"641":-0.03051495085675503,
		"642":-0.09619060801099008,
		"643":-0.016641522512054273,
		"644":0.09832889095680018,
		"645":-0.05110569465046647,
		"646":-0.2227324335507578,
		"647":-0.012900095614137908,
		"648":0.0013254097436724683,
		"649":-0.012222430406954619,
		"650":-0.12008235762843994,
		"651":0.024852384205827964,
		"652":0.027378822389736875,
		"653":-0.014465890566270316,
		"654":-0.19106109381544695,
		"655":-0.032356526463198435,
		"656":-0.010105207168719807,
		"657":-0.0649064825416932,
		"658":-0.0649588499733434,
		"659":0.010275925083330344,
		"660":0.03422301438459721,
		"661":0.005628709656928137,
		"662":0.027638713429573237,
		"663":0.004301528125812959,
		"664":-0.012729923751868167,
		"665":0.05256129376554119,
		"666":0.04102141305931474,
		"667":-0.00840835158921512,
		"668":0.07037716929232828,
		"669":0.011409593511297214,
		"670":0.07035028917893404,
		"671":0.04934883551618802,
		"672":-0.05548993564861768,
		"673":-0.0008803797845271088,
		"674":0.005918358588166506,
		"675":0.03385069227900674,
		"676":0.05937964883639948,
		"677":-0.09027379223483195,
		"678":-0.06610833545654138,
		"679":-0.029491583071318973,
		"680":0.042305350670116856,
		"681":0.017910697346113016,
		"682":-0.0884887788655804,
		"683":0.0667363909508173,
		"684":0.19280694389655728,
		"685":-0.04625357397354738,
		"686":-0.10689433934062076,
		"687":-0.007314611548755852,
		"688":-0.0017469608025217076,
		"689":0.021814053765350103,
		"690":-0.11861750155079784,
		"691":-0.16700971371987106,
		"692":0.1537592645395402,
		"693":-0.10607334642666183,
		"694":-0.17879697268880823,
		"695":0.07512220643382989,
		"696":-0.02409110892250718,
		"697":0.008972382583802382,
		"698":-0.12372351329510124,
		"699":-0.1962966303638797,
		"700":0.13095811981308678,
		"701":-0.09683202260590279,
		"702":-0.22411344892575832,
		"703":0.03548980889311192,
		"704":0.004669110640550788,
		"705":-0.021319279748390395,
		"706":-0.09864384000503576,
		"707":-0.21363397227169184,
		"708":0.037427845249014643,
		"709":-0.020988902649828698,
		"710":-0.10220120441473468,
		"711":-0.04238313456615236,
		"712":0.05711923028634148,
		"713":0.018807532775199847,
		"714":-0.011143773428042993,
		"715":-0.15436522402894143,
		"716":-0.001545562695031014,
		"717":0.01291737264817408,
		"718":-0.0702672294301492,
		"719":0.007166901655061277,
		"720":-0.046757491141811665,
		"721":-0.013102857731576174,
		"722":-0.13117628994744632,
		"723":-0.04717253185755907,
		"724":0.042678009750263486,
		"725":-0.038956235019594214,
		"726":-0.06482390904188472,
		"727":0.0400746136614948,
		"728":-0.010050918503079237,
		"729":-0.0546043166867557,
		"730":-0.019855257830750556,
		"731":-0.03183935169715012,
		"732":-0.002020543084401712,
		"733":-0.06343579640620792,
		"734":-0.004402146313045144,
		"735":0.05334469779075523,
		"736":0.038062154445018696,
		"737":-0.08557248987835187,
		"738":-0.13054252926736415,
		"739":-0.09226888543610812,
		"740":0.04192477085528656,
		"741":-0.0000667502620894404,
		"742":-0.07510560873252087,
		"743":0.06311366904788535,
		"744":0.07967317872439547,
		"745":-0.0849022483408866,
		"746":-0.07018560141447064,
		"747":-0.025516790457704986,
		"748":0.04078084118631381,
		"749":0.03175091329561191,
		"750":0.07241585378219799,
		"751":-0.014928018576798655,
		"752":0.02475268324778029,
		"753":-0.0652806013097678,
		"754":-0.05303554307843248,
		"755":-0.026585923507829626,
		"756":0.04519165872913558,
		"757":0.10053598304312843,
		"758":0.13226170020226302,
		"759":-0.007545240554875717,
		"760":-0.09471478370540681,
		"761":0.006951870490239773,
		"762":-0.05101357008419482,
		"763":-0.023159893732053526,
		"764":-0.0017001188357360659,
		"765":0.11671161344039173,
		"766":0.11755643664743136,
		"767":0.08010281012995872,
		"768":-0.014643864256910359,
		"769":0.034704138945023,
		"770":-0.026730304036095248,
		"771":-0.0326665857539589,
		"772":0.045925600053320324,
		"773":-0.06941137267528315,
		"774":0.002577021535508532,
		"775":-0.006642201864321051,
		"776":0.06359528462291164,
		"777":0.030100368624866116,
		"778":-0.07604801867211348,
		"779":0.004624982304288332,
		"780":-0.024854312919108185,
		"781":0.005713631916401541,
		"782":-0.03215899793421085,
		"783":0.05828380891143146,
		"784":0.07093538561334807,
		"785":0.0303060850587642,
		"786":-0.13200828416774693,
		"787":-0.1465449961488502,
		"788":0.04785873647261232,
		"789":0.04080255414087679,
